#include "hls_stream.h"
#include "ap_axi_sdata.h"
#include "ap_int.h"
#include <iostream>
#include <math.h>
#define DWIDTH 32
typedef ap_axis<DWIDTH, 0, 0, 0> trans_pkt;

  float InputToLayer1Weights[73][256]={{-0.102389,0.0412294,-0.108854,-0.127472,-0.0573425,-0.0279163,-0.0591638,-0.0308937,0.0151422,0.0549482,0.061103,-0.0241021,0.0708743,-0.00030416,-0.0382831,0.0694075,0.0767404,0.164114,0.155373,0.106804,-0.0017562,0.171516,-0.0136184,-0.0876278,0.0688778,-0.0463884,-0.0213841,-0.0440061,-0.00795331,-0.110534,0.17701,-0.184611,-0.0726878,0.000605978,0.100421,0.0595639,0.0288702,0.0733261,-0.110077,-0.00257321,0.165046,0.0765893,0.156901,0.0722775,-0.0346445,-0.031404,0.0599928,-0.076958,-0.00352645,-0.011781,0.130124,-0.137081,0.140374,0.00144765,-0.00134664,0.00770699,0.0339763,0.0081896,-0.00504904,-0.142775,-0.121377,-0.090471,0.0249343,-0.0206673,-0.172185,0.146913,-0.025078,0.0727528,-0.0897499,-0.0615362,0.067032,0.0343336,0.0706616,-0.0786081,-0.0663536,0.0242153,-0.095197,0.133121,0.0050054,-0.175152,0.089313,0.0749655,-0.0145431,-0.0109056,0.0131584,0.077333,0.0288967,0.164963,0.0468289,0.053692,0.0939186,-0.102387,0.0944085,-0.107177,0.107243,0.0955741,-0.1013,-0.0508329,0.0358179,0.0271797,0.0551003,0.0459292,0.0575285,-0.0326875,0.0112008,0.0302942,0.169325,-0.119021,0.00164065,0.148438,-0.000530587,-0.050182,-0.0916024,0.011038,-0.0304544,0.131968,0.145222,0.128251,-0.0407409,0.0773345,0.0442281,-0.0839174,-0.0994951,0.144451,0.0620291,-0.0226425,0.0296624,0.0913707,0.0459,-0.0185745,0.0642373,0.124903,0.0953838,-0.0293841,-0.122768,-0.0358672,-0.00951366,-0.0498394,-0.0690277,-0.0162391,0.0364852,0.0638508,0.108439,0.0487588,0.00789466,-0.0224571,-0.00752545,-0.0137127,-0.0480597,0.0718013,0.0720498,0.0403047,0.0460538,0.0886211,-0.0983693,-0.00464853,-0.0865651,-0.19556,0.113155,0.0198654,-0.0263609,-0.0601213,0.0595336,-0.0696688,0.0480153,0.149161,-0.050635,0.0297644,0.00629026,0.0608729,0.110892,0.00206504,0.0548813,-0.0509808,0.00589635,-0.0980191,-0.0537076,0.016074,-0.0496577,-0.0883899,-0.0157861,-0.0452246,-0.154749,-0.0447308,0.0889344,0.0560211,-0.111324,0.0112894,0.158259,-0.00717768,0.171047,0.0120771,0.147257,0.066579,-0.0698284,-0.0698331,-0.0985865,-0.0971345,0.139274,0.134267,0.136022,0.0236012,0.0164401,0.0379023,0.034055,-0.102965,-0.0739647,-0.0276065,-0.0327048,0.151564,0.00484776,-0.1311,-0.062728,0.19523,-0.0412804,0.00500778,-0.0427357,0.0153958,0.00574348,-0.0629428,0.0772574,0.052325,0.0424523,-0.0428382,0.164537,0.0615318,-0.0381839,0.0498771,-0.116284,0.0755831,0.0301753,-0.0273529,-0.0738352,0.144201,-0.0124063,0.153107,0.00400136,-0.194436,-0.125855,0.0845646,-0.0623869,-0.0132149,0.0821117,0.0201454,0.121184,-0.00672164,-0.123837,0.0405673,-0.130162,-0.100649,-0.0903386,0.0876442,0.0513113,0.0782979,0.00471609,0.14322},
		  {0.284635,-0.22887,-0.00881566,-0.0336601,-0.120813,-0.129265,0.158407,0.0337552,-0.0689199,0.150757,-0.0435964,-0.0669845,0.0663359,-0.0541076,-0.0828596,-0.0437964,-0.0284705,0.0707513,0.0772848,-0.244066,0.0768442,-0.0569655,-0.0137231,0.209166,0.121564,0.0152987,0.114635,0.088164,0.0888128,-0.115823,-0.0360955,0.119163,0.0673429,-0.0710065,-0.111473,-0.116735,0.103597,-0.190096,0.057773,-0.13802,0.115579,0.0791335,-0.0588783,-0.0639749,-0.0146118,0.168226,0.0789811,-0.131885,-0.0623602,0.0700817,0.0257295,-0.129328,-0.138643,-0.0948827,-0.0499688,-0.112837,-0.0853113,0.00515672,0.093384,0.0308262,0.32418,0.0924224,0.142087,0.15722,0.013659,0.0994123,-0.0666753,0.114333,0.114589,-0.182345,0.0945966,-0.0559269,0.119091,-0.236723,-0.138421,-0.107303,-0.12865,-0.11574,0.111339,0.0308466,0.199891,-0.0707003,0.0423444,0.00890923,-0.183907,-0.134978,0.0828334,0.0236777,-0.153354,-0.1942,-0.14542,-0.0248976,-0.0688573,0.0710912,0.0857503,-0.110214,0.121001,-0.0522266,0.0582861,0.0508568,-0.117174,-0.10179,0.145495,0.0883103,-0.0554455,0.184746,-0.152797,0.147267,-0.00182054,0.0179658,-0.108395,0.0710848,-0.0519069,-0.151336,0.144212,0.101525,0.283518,-0.0531999,0.0604335,-0.0438956,0.137327,-0.091538,-0.122834,0.0818287,0.210338,-0.177811,0.138973,0.0675241,0.142838,0.125598,0.0618659,-0.0304878,-0.0413429,0.203751,0.0936135,-0.127662,-0.20087,0.0103187,0.11736,-0.208452,0.10934,-0.0155679,0.166625,0.0913162,0.092059,-0.07317,0.172746,0.185482,-0.153344,-0.0884681,-0.056416,0.151254,-0.0422357,0.019448,-0.0860874,0.0723716,0.189418,0.0238759,-0.253059,-0.143963,0.10532,0.191624,-0.0797922,0.103817,0.107611,-0.157809,0.0608342,-0.072612,0.0847708,-0.0599164,0.10192,0.142451,-0.036122,0.0443993,-0.0711781,0.129362,0.136416,-0.0618129,-0.000595838,0.0540137,0.0804713,0.257595,0.0426679,-0.138569,-0.0234871,-0.0668434,0.133714,-0.181895,-0.0411391,0.0893167,-0.126508,-0.0516664,0.00956197,-0.0113585,-0.0247633,-0.00519692,-0.0887128,0.178006,0.0868966,0.105021,0.142903,-0.0704041,-0.162181,0.0104877,-0.044526,-0.153963,-0.0798132,0.123414,-0.00893777,-0.0441534,0.145477,0.0416092,-0.189219,0.0585063,-0.134162,0.124745,-0.0588322,-0.203685,-0.0764205,-0.252948,-0.13363,-0.0990017,-0.000467657,-0.0259849,-0.120054,0.0010116,0.127376,0.0535484,-0.0507607,-0.049263,-0.0896971,-0.0116793,0.120952,-0.178488,0.155051,0.0968453,-0.118684,-0.0723718,-0.0744204,0.0824135,0.0749135,0.203512,-0.140254,-0.16657,-0.0573181,-0.109256,-0.0567983,-0.00942504,-0.0843499,0.0276635,0.13566,-0.019107,-0.0233926,-0.0292115,0.161372,-0.246782},
		  {0.198338,-0.131169,0.0928771,-0.0985908,-0.0741065,-0.00719874,0.12197,0.0564682,0.0540068,-0.0854623,0.0358624,-0.0465333,0.0247294,-0.0346183,0.0270768,-0.0227142,-0.05114,0.0232578,0.0779216,-0.164857,0.0551362,-0.0796485,0.118787,0.134997,-0.0719214,0.109861,-0.0786134,-0.0229176,-0.175152,-0.165904,0.13761,0.204399,-0.00472589,-0.0441393,-0.12597,0.114226,0.103086,-0.0821259,0.167622,-0.0489233,-0.0361714,0.151419,-0.0845519,0.0673829,-0.030857,0.0165782,0.00077444,0.191785,0.0905021,-0.03631,-0.0114254,0.0646066,-0.118792,0.0812802,0.0837843,0.0915696,0.211876,0.0418943,-0.0702956,-0.00741719,0.219852,0.0564231,-0.00664042,0.0303207,0.0769517,0.116687,-0.162001,0.028922,0.0464847,0.0579465,-0.0132034,0.13622,0.0267897,-0.0252499,0.13222,0.000964474,0.00740423,0.0814112,-0.0702683,0.00190281,0.116956,0.0257155,-0.0132138,0.0410523,0.165948,-0.126606,0.0220593,0.152394,0.0391941,-0.0133225,0.0826455,-0.177524,0.0917954,-0.0950241,-0.162022,-0.0987305,0.0456153,0.0191004,0.069574,0.0721842,-0.196755,-0.0304535,-0.101314,-0.00106943,0.0585083,-0.076695,-0.197275,-0.0734416,-0.144184,-0.0444082,-0.0413563,-0.100262,-0.0452203,0.0717939,0.0162162,0.1573,0.162518,0.0249334,-0.153881,-0.104744,-0.103048,0.029442,-0.12558,0.0483826,0.0971961,0.0321941,0.0272203,0.126822,0.0786993,0.0421497,0.000939256,0.106803,0.1776,0.0985757,0.16001,-0.111341,-0.177843,0.165788,-0.0115918,0.00663396,-0.102661,0.0186771,0.0473656,-0.139806,-0.0512379,0.165125,0.0576512,-0.00472584,-0.0709689,-0.111837,0.145142,-0.136524,0.0234264,0.0170732,0.0904176,-0.0519423,-0.0143935,0.0525299,-0.177533,0.00929485,-0.0637069,-0.0214426,-0.184204,0.0262802,-0.106873,0.0882016,0.0853218,-0.0132529,0.0209296,-0.0615796,0.0641354,0.0950281,-0.0923753,0.209128,-0.0779775,0.0956951,0.0274604,0.134572,-0.0615434,0.0773581,-0.143418,0.0161159,-0.0866003,0.168481,-0.00634243,0.12159,-0.00255296,0.0551032,0.0671719,0.0151168,-0.18594,0.013785,0.112253,-0.117803,-0.173943,-0.0943158,0.118977,0.0846094,0.153522,0.124297,0.0637996,0.0234908,0.136126,0.010046,0.0114618,-0.043028,-0.0188085,-0.0767831,0.0913477,-0.0315724,-0.106544,-0.132702,0.0462896,0.0268388,-0.203312,-0.070257,0.0666099,0.103372,-0.0580468,-0.120651,0.0183029,0.0896445,0.103326,0.0508901,-0.012883,-0.168167,-0.124357,-0.0543055,-0.26039,-0.0772343,0.0608338,-0.229418,0.198471,-0.044257,0.0398375,0.0608274,0.103595,-0.0289062,0.206349,-0.193382,-0.00585256,0.0862215,0.136892,0.0961498,0.0444047,0.0241419,0.0582385,-0.19499,0.0832941,-0.0310542,-0.0190468,-0.0482795,-0.000822874,0.0295545,0.113712,-0.0643738},
		  {-0.0377904,0.0518153,-0.0548562,0.117545,-0.0645933,-0.0702498,0.0519995,-0.0287924,0.122413,-0.0128254,-0.0211563,0.130047,0.0922726,-0.0585783,-0.0631168,-0.119649,0.093711,0.19249,0.142146,-0.0114294,-0.00753995,0.0497645,0.200003,0.145233,0.0636816,-0.108301,0.0238475,0.0814972,0.0135907,-0.149388,0.0134873,-0.00189186,0.0165449,-0.0841506,0.114077,0.0882734,-0.013125,-0.0144251,0.0286908,-0.0612418,-0.0720173,0.218463,-0.0712174,-0.15404,0.0896724,-0.189565,-0.0470116,-0.119611,-0.0827353,0.183499,0.127006,0.215946,0.0648847,-0.145263,0.0753732,-0.0639501,0.0983538,-0.0945055,0.189673,0.136869,0.0424634,-0.104153,-0.0864125,-0.0997519,0.0192344,0.183696,-0.0194402,-0.110322,0.0144696,-0.0807462,0.0220502,0.0198691,0.107851,0.0902686,0.0995218,0.0935448,-0.145867,-0.0800728,0.016107,0.12822,-0.0403811,-0.0523497,0.0914955,-0.117158,-0.0264017,-0.190512,0.0215595,0.0487864,-0.0537027,0.131082,0.120503,0.195845,0.0216575,-0.0191354,-0.135253,-0.212362,-0.108772,-0.036124,0.17137,0.0420388,-0.111627,0.0426656,-0.0723913,0.0877326,0.16377,0.0464092,0.0579718,-0.125137,-0.129225,-0.0415782,-0.0336509,0.108914,-0.00347949,-0.137864,-0.0634818,-0.133939,0.154488,-0.0919913,-0.0157301,0.0318634,0.0454196,0.0113625,0.11993,0.12943,0.0972606,0.155849,-0.0271275,0.12012,-0.0806989,-0.0719167,-0.0926718,0.171483,0.0304434,0.0879946,-0.0346571,-0.0432613,-0.168903,-0.0100044,-0.123934,-0.0895025,-0.04716,0.0705613,-0.0240053,-0.107807,0.0620268,0.15705,0.115858,0.089837,0.144258,-0.0629639,-0.0872194,0.230104,0.156551,-0.0296305,0.138595,-0.0112078,-0.172482,-0.16734,-0.093276,0.00370317,0.0163937,0.179604,0.0384855,0.0456065,-0.0875249,0.133181,0.0790066,-0.0193174,0.00939006,0.106441,-0.0823542,0.135584,0.095837,0.150986,-0.0826832,-0.068925,0.110535,0.0818634,-0.14984,-0.0847031,-0.140122,0.148143,-0.059571,0.0980136,0.00542304,0.0687269,-0.0434632,-0.0564829,0.18521,-0.114007,-0.0771901,0.0111449,0.0992915,0.163822,-0.156407,-0.0199696,0.0496071,-0.0861044,0.00152159,0.0775312,0.111609,0.0256173,0.111165,0.0206222,-0.228083,0.0128612,-0.0772968,-0.106428,0.199866,-0.222514,-0.0349585,-0.135522,0.018897,0.140618,-0.225684,0.0493411,-0.0222309,-0.156061,0.0778273,-0.193842,0.112655,-0.190468,-0.0276189,0.147819,-0.129363,0.0140118,0.0430205,-0.0108734,-0.215814,-0.13656,0.118977,-0.0772249,0.1804,0.0492104,-0.00281736,0.194941,-0.0212762,0.0899158,0.0962841,0.115356,-0.0580236,0.0675887,-0.0675897,-0.127618,0.0526483,-0.0621508,-0.149592,-0.0109824,0.0409749,-0.111031,-0.0377432,-0.208921,0.106037,0.17108,-0.0202276,-0.160883},
		  {-0.0474232,-0.0549558,-0.136771,0.1161,0.0308593,-0.045413,0.0449131,-0.0462578,0.059613,-0.108945,0.00354123,0.141342,0.00678414,0.0476805,-0.0267799,0.102194,0.003186,0.118181,-0.0089164,-0.106936,-0.0942295,0.0937621,0.046374,-0.0447784,-0.144399,0.101812,0.121713,-0.032893,-0.114375,-0.0887857,0.102891,0.0490934,-0.113258,0.118919,0.0289007,-0.0243044,-0.0807524,-0.120417,0.0331656,0.184204,0.0297759,0.119493,0.13741,-0.13895,-0.0860303,0.0192315,-0.0584862,0.153722,-0.0155728,0.169356,0.0486576,0.0593617,-0.0489055,-0.0880478,0.018255,-0.0791526,0.21454,0.0518878,0.191565,0.139162,0.16538,-0.193939,-0.123974,0.0582501,-0.00866969,-0.0275871,0.139449,-0.0156746,-0.0616675,0.123131,0.173154,-0.0745528,-0.039941,-0.0664569,-0.117363,0.117048,-0.0150634,0.0298688,-0.0594341,0.169437,-0.0344582,0.185876,-0.0483889,0.0362115,0.029458,-0.00878829,-0.0704509,0.144877,-0.0223171,-0.106395,0.087102,0.103523,-0.17786,-0.149355,-0.0403192,-0.0890267,-0.0365645,-0.164061,-0.0817544,0.00192935,-0.163719,-0.00478149,-0.103241,0.156118,0.0371309,-0.0918342,-0.217053,-0.0892232,-0.17663,-0.0965492,-0.0606654,0.00475231,-0.0145055,0.106619,-0.0172272,-0.0958577,-0.00268207,0.0910487,-0.155995,-0.12018,-0.0904117,-0.0143623,0.144583,0.0778124,0.114384,-0.0342697,0.110301,-0.0956737,-0.0531,-0.0228885,0.0313379,0.0202667,0.113164,0.0687109,0.183656,-0.0209894,0.0110299,0.0809051,0.0620307,0.0107535,-0.120692,0.113669,-0.131885,0.0424163,-0.113612,-0.0156324,0.112365,0.116322,-0.0424077,0.0189871,0.0640362,0.172796,0.124314,-0.0959137,0.0202494,-0.0828852,-0.107069,-0.0856463,-0.100153,-0.0363809,0.010002,-0.139207,-0.0079343,0.240248,-0.160489,-0.111424,-0.0249423,-0.185743,-0.0373646,0.0521587,-0.0621577,0.15246,0.109432,0.133892,-0.0778385,0.11199,0.174908,-0.0108393,-0.0963045,-0.150177,-0.0383637,0.0220193,-0.0352489,0.0470472,-0.0668812,-0.0467977,-0.17822,-0.0811902,0.11447,-0.177459,-0.140021,-0.126214,0.117858,0.145012,0.00523931,-0.165232,0.109602,-0.0630588,-0.124737,0.00593119,0.227272,0.138776,0.176601,-0.0211212,-0.103864,0.0685475,-0.07077,0.107118,0.0508422,0.0197054,0.0687942,-0.138486,-0.123368,0.11236,-0.138429,-0.137555,0.0475548,-0.0374592,0.0390513,-0.136645,-0.00632751,-0.198295,-0.00893118,0.108506,0.149736,-0.200313,-0.18139,-0.0376834,-0.11932,0.000113074,-0.0290985,-0.155946,0.0503832,0.0601064,-0.140852,0.0786194,-0.0848375,0.1281,0.226395,-0.0771927,0.0173789,0.0332567,0.00124402,0.01953,-0.0308126,-0.00955613,0.171891,-0.123388,0.039361,-0.224146,-0.0915549,-0.173919,0.0247383,-0.00849851,-0.130351,0.0461776},
		  {-0.127514,0.00625146,0.0169084,-0.0124871,0.00825153,-0.131601,0.0680992,0.0677187,-0.0602522,0.0639499,0.0313228,-0.0155939,0.0398679,0.0170845,-0.0315145,-0.0460337,-0.0916897,-0.0845236,-0.122267,-0.0102293,0.00826156,-0.0828906,-0.0565589,-0.0672749,0.105139,0.0378409,-0.071751,0.0813658,-0.0912421,0.131926,0.0476479,-0.0328971,-0.0769643,0.052514,-0.0252821,0.0385436,-0.0155763,-0.12008,-0.108005,-0.102244,0.143573,-0.122328,-0.0938425,-0.0908244,-0.0521785,-0.00563596,0.0387069,0.0740546,0.0100728,-0.037596,-0.0436027,0.0566256,-0.0801393,-0.0184821,0.0940227,-0.058558,0.0966756,-0.0608766,-0.034325,0.0176157,-0.0207568,0.116659,0.000437548,0.049621,-0.0481647,-0.0557283,-0.0350149,0.12525,-0.122632,-0.0114192,0.0363863,-0.048571,0.0062876,0.0681508,0.0774498,-0.0549351,-0.0302093,-0.0376957,0.052244,-0.119087,-0.0349458,0.0227061,0.111326,0.0613683,0.101936,0.0333984,0.0814289,0.0411347,0.0257118,-0.060089,-0.03186,-0.0982103,0.031039,0.0406967,0.0736988,0.0817742,0.0710272,-0.0872662,-0.137226,-0.0109708,0.147599,0.0737854,0.0281537,-0.0595933,-0.14797,0.0309905,-0.000538197,0.0473192,0.00357209,0.133345,0.0578424,-0.114561,-0.0295865,0.104436,0.0105603,-0.0822442,0.0728012,0.160863,0.055121,0.0444306,0.047741,0.0332042,-0.0593535,0.112971,0.110549,-0.0583916,0.0540438,-0.00281385,0.0213035,-0.00212839,-0.0992862,-0.0803019,-0.00153634,-0.169943,-0.0345079,-0.0407647,0.131423,0.0137551,0.170779,0.115896,-0.0912817,0.0935601,0.0531712,-0.0349579,-0.0207648,-0.05009,0.117919,0.160082,-0.078578,0.122981,-0.130145,-0.151555,-0.13297,-0.102163,0.0173528,0.122668,-0.087176,0.0441123,-0.0307193,-0.04907,-0.0901265,-0.0652005,0.13639,-0.177678,-0.0997158,-0.120293,-0.15056,0.135683,0.0190475,-0.0159163,0.0262895,-0.147646,0.126758,-0.0865812,-0.0891774,0.00136679,-0.0739988,0.0276346,0.120511,0.00832172,0.110269,0.018007,0.0604557,-0.185787,-0.112312,-0.0850153,0.0655322,0.0894372,-0.00657342,0.125673,-0.0836525,-0.0897154,-0.0879101,-0.106813,0.127143,-0.131882,-0.11464,0.0831456,0.125692,-0.106357,-0.155055,-0.0484899,0.0115482,0.0912741,0.0975894,0.0585079,0.0199049,-0.0892156,-0.0627415,0.117773,-0.073342,0.0278653,0.0979885,-0.000710143,0.178863,0.124336,0.156421,-0.0182212,0.0495721,0.0185387,0.0479502,0.0108818,-0.0608037,0.0689331,0.118528,-0.0316742,-0.0727175,-0.0757251,0.0986895,-0.0972925,-0.0255811,0.110596,-0.159999,0.0200895,-0.0498891,-0.106109,-0.0216753,0.0444952,-0.132731,0.0568799,-0.00618251,-0.10649,0.00165619,-0.036434,-0.0379937,-0.0511383,0.010999,-0.0802236,0.10034,0.0362539,0.0544259,0.1807,0.102522,0.0465212,0.0197327,0.133155},
		  {0.115503,-0.117287,-0.151247,0.0261977,0.0175993,-0.140619,0.000296069,0.0160115,0.0359631,-0.158767,0.0628614,0.117708,0.188549,0.0817381,-0.151318,0.0865581,0.0351267,0.0782009,-0.148487,0.0698454,0.109465,0.070747,0.01271,0.17745,0.0172698,0.0993024,-0.0788156,-0.109495,-0.0950334,-0.161805,-0.0320584,0.124237,-0.0536038,0.0269246,-0.0976965,-0.123131,0.0621568,-0.103376,-0.0890547,0.080837,-0.066789,0.142802,0.0876604,-0.155824,0.060158,-0.055456,-0.0554812,0.0879784,-0.0227611,0.100117,0.111597,0.0878766,0.0610183,-0.086069,-0.0192866,-0.0913939,0.0602402,0.0316253,0.147227,0.0116966,0.0811201,0.0608192,0.0075739,-0.123574,-0.141573,-0.0734852,0.11523,-0.0916844,0.147027,0.135394,0.114838,0.0552376,0.00629464,0.145813,0.146312,-0.0332259,-0.115046,-0.124306,-0.198409,-0.10378,0.141364,0.0309514,-0.08769,-0.100349,-0.0285213,-0.199548,0.164755,0.10724,-0.172088,0.0445176,-0.0213779,0.126189,0.0745881,-0.0257762,-0.134844,0.0328002,-0.182731,-0.187399,-0.121868,0.156463,-0.152656,-0.142047,0.113774,0.192801,0.0775792,0.0264733,-0.136893,0.0339796,-0.126268,0.0638688,-0.0664934,0.0819415,-0.0416253,0.140624,0.144603,0.0297274,0.226677,0.0125753,0.0174725,0.0402462,-0.0680565,-0.0490693,0.0141605,0.176866,0.0927454,0.165854,-0.091876,0.0915552,0.177546,-0.0748968,-0.0300979,0.0769195,0.125905,0.167084,-0.0376509,-0.188639,-0.0926705,0.041378,-0.0480994,-0.167515,-0.0871146,0.0351533,-0.136289,-0.0282658,-0.143972,0.074227,0.092967,-0.0679239,0.0358902,0.0865048,0.0891384,0.143958,0.0651607,0.070092,0.0596752,0.051919,-0.00598965,-0.174926,-0.147828,0.140752,0.013292,-0.000456565,-0.1253,0.185448,-0.07619,-0.102046,0.10598,-0.0761897,-0.130034,0.0861669,0.05475,0.0494579,0.130645,0.0269866,-0.202034,0.0836405,-0.00185133,0.0519108,-0.180544,0.108562,0.0487686,0.113586,0.00645226,0.130749,0.0521751,-0.0449312,-0.152287,-0.0753395,0.156208,-0.062139,-0.0803154,0.0142292,0.10401,0.10699,0.0419578,-0.188511,-0.0165401,-0.100559,0.0381908,-0.0993418,0.0131276,0.0644952,-0.0175485,-0.16878,-0.157017,-0.101468,-0.0507923,0.0908364,0.0593349,-0.142143,-0.00842824,-0.122741,0.0834556,0.15356,-0.1881,-0.0599315,0.00387037,-0.0074093,-0.158403,-0.302447,0.0681856,0.0428481,0.00632144,0.0304517,0.0132232,-0.106557,-0.201929,-0.0904319,-0.033641,-0.0356436,0.022568,-0.0918229,0.239791,-0.0879552,0.0136578,0.0875876,0.0245506,-0.0538369,0.212276,-0.174357,-0.0278479,-0.0952831,-0.0570018,-0.178244,-0.0736237,0.160879,-0.0836913,-0.0823596,0.013605,-0.20155,0.0734342,-0.159839,-0.0786532,0.160926,0.108788,0.0646768},
		  {-0.085805,-0.159386,-0.176297,0.114597,-0.100644,-0.00955131,-0.181342,0.0325993,0.0822375,-0.0530207,-0.0729877,0.0154085,0.126785,0.0023946,0.0761874,0.0566284,0.0588609,-0.0605213,0.0168922,-0.071959,0.0779638,0.0983037,0.0580936,0.100938,0.0335644,-0.00593044,0.130084,0.153631,0.00184519,0.0476773,-0.161343,-0.020465,-0.085862,0.0770932,0.0920116,-0.000485464,0.162274,-0.183057,-0.0242573,-0.0900045,0.197109,-0.0968634,0.204955,0.148431,-0.043139,-0.0787951,-0.0360837,0.0921367,0.0990032,0.0921066,0.0340398,-0.0812935,-0.148358,0.0183594,0.109116,0.0446571,-0.122142,0.0817558,-0.0327986,0.0728427,-0.109486,-0.00692886,0.0703154,0.0958987,0.0238234,-0.150824,0.0603939,0.0276736,0.144272,0.0481379,0.0243978,0.11184,0.0874799,-0.0359051,0.143249,0.0474845,0.0278138,-0.117797,-0.0707158,-0.00984965,0.135241,-0.0943652,-0.084277,-0.0797998,0.107425,0.145129,-0.0916207,0.0170401,0.155344,-0.0190282,-0.133894,-0.0422377,0.160479,0.0166563,0.082943,0.0733595,-0.056234,-0.0905723,0.0174581,-0.116955,0.166698,0.00625855,0.100111,0.166686,-0.108917,0.0153205,-0.0963364,0.0299612,-0.0326901,0.0668379,-0.0105509,-0.0317898,-0.167446,0.0929315,-0.0123059,0.110359,-0.0228929,-0.0739461,0.107747,0.155615,-0.0631231,-0.203889,0.0029647,0.0509901,-0.00855258,0.151467,0.12707,0.072579,0.0385211,0.165329,0.181713,-0.0532771,-0.0103551,-0.219651,0.00310631,0.0344662,-0.0210025,-0.0989624,-0.00108826,0.108157,0.0588582,-0.0848751,-0.0640683,0.133425,-0.0573195,0.0826408,0.0899456,0.0750773,-0.024248,-0.184064,0.0985013,0.104513,0.0995782,0.21803,-0.171788,0.122948,0.186588,0.0803798,0.0393415,0.127102,-0.0780977,-0.0526717,0.133968,-0.172175,-0.182356,-0.185322,0.0958166,-0.0916396,-0.123282,0.0766266,-0.102872,-0.101813,0.103008,-0.142126,-0.102521,-0.0720753,-0.101993,-0.17015,-0.0411214,0.143222,-0.0503901,-0.0491502,-0.0113212,-0.044677,0.0242511,-0.0414322,-0.0289101,0.0203917,0.036872,0.0364939,0.0666256,0.042597,0.0493519,-0.128757,-0.130908,0.0565244,0.0112118,0.0199496,0.0044397,0.113989,-0.172593,-0.0132209,-0.142313,0.0841682,0.0581836,-0.169699,0.00167112,0.0857446,-0.159924,0.187081,0.0845315,-0.0321779,0.0954297,-0.111846,0.215647,-0.120599,0.139483,-0.0501576,0.1154,0.14735,0.0388811,-0.0161982,0.0454029,0.0982351,-0.018661,0.0324498,-0.00229873,-0.0207801,-0.00992792,0.121264,-0.137323,-0.0962698,0.153189,-0.0509572,-0.00852555,-0.139885,0.0362346,-0.00640151,-0.0415477,-0.0539164,-0.0295421,0.100597,-0.0204673,0.0196808,0.167507,0.157407,0.00535965,-0.0478012,0.0627708,0.142335,-0.0282327,0.0948662,-0.155048,0.112955,0.0230051,0.00470792},
		  {-0.115562,0.186354,-0.0230146,-0.0326017,-0.0386275,0.154689,-0.0806701,-0.103746,-0.146943,0.0591965,-0.0773526,0.0635438,0.0570854,-0.126523,0.0731537,-0.0887246,0.0781312,-0.00463267,0.141482,0.111917,0.00251087,-0.0625,-0.0482834,0.156741,0.0496002,0.117251,-0.131368,0.0144033,-0.0790703,0.012064,-0.156387,-0.0233702,0.079231,-0.0063713,-0.0354916,-0.00647971,-0.00136063,0.0462778,-0.10531,0.101891,0.172246,-0.0924614,-0.0195722,0.127843,0.124047,0.0715708,0.0411657,-0.0114679,0.0198973,-0.180072,-0.0900569,0.0707992,0.0994936,0.104082,0.115771,0.056202,0.00548084,-0.155632,-0.052067,0.0360308,-0.200871,-0.134563,-0.143634,0.0170083,-0.0371345,0.018175,0.125591,0.00670197,-0.122569,-0.0739258,-0.182615,-0.0886854,-0.0347296,0.000278689,0.0159425,0.0633019,0.17567,-0.0122373,-0.00150071,0.0479465,-0.012826,0.0705886,0.106278,0.00842189,-0.00817337,0.101319,-0.0129867,0.0401914,0.0173345,-0.128277,0.0820802,0.00494381,-0.0140628,0.078607,0.107432,-0.108626,0.0400283,-0.0296685,0.0718743,-0.0891353,0.0450824,0.107737,0.013479,0.00556403,-0.0797876,0.114537,-0.0331971,-0.0824656,-0.0951441,-0.0357372,-0.147932,-0.00818444,-0.00796849,0.128146,-0.135866,-0.152931,-0.0965332,0.0854368,-0.0354262,0.123216,-0.0457131,-0.0620917,-0.102255,0.138072,0.0670267,-0.0290385,-0.143429,-0.152697,-0.177884,-0.0747294,0.053956,0.0515595,-0.0623919,-0.012818,-0.0969884,0.0918575,0.096006,-0.0402044,0.15054,0.0632886,-0.123689,0.0948347,0.110694,-0.0472839,0.0213972,-0.217358,-0.119924,-0.0598653,0.018146,-0.0088147,-0.130932,-0.0980392,-0.03757,0.0766632,-0.00200651,-0.0971762,0.0947479,-0.0262485,0.0971763,0.0517822,0.0381422,-0.0225264,0.0626892,-0.112549,-0.112201,0.132758,-0.000335684,-0.0121226,-0.137807,0.048841,-0.0294686,-0.143294,0.130415,-0.0939142,0.0849042,-0.117597,-0.145564,-0.0758586,0.0950698,6.82e-05,0.11767,0.0452972,0.0385578,-0.210436,-0.18458,0.0876057,-0.0209347,-0.0426723,0.146498,0.12541,0.116812,0.0039243,-0.121123,0.00248935,0.0131199,-0.0331221,0.110513,-0.0813267,-0.0846943,0.0272788,0.048609,0.029775,-0.15034,0.145017,0.110685,-0.0977621,0.117192,-0.118996,-0.0805854,-0.127938,0.0470272,-0.000265502,-0.0408188,-0.0332858,0.0186184,-0.111247,-0.0847082,-0.0257785,-0.0896497,0.178276,0.0785803,-0.0970032,0.10643,0.031044,0.0534999,0.184777,-0.0922781,0.112075,0.146628,0.0798683,-0.0835907,0.173405,-0.143296,0.121429,-0.0267355,-0.13566,-0.102984,-0.00804275,-0.140303,0.130307,-0.0694418,-0.0315025,-0.0512811,0.0444807,-0.0278457,0.106113,-0.102923,0.0481064,0.0707996,0.0022893,0.0226363,-0.0632963,-0.0801588,0.0141514,-0.151367,0.0627994},
		  {0.0407242,-0.117894,-0.0558018,0.0862844,-0.0568003,0.0820298,-0.0271636,0.0436576,0.159563,0.0939558,0.0547124,0.00845078,0.140481,0.0594339,-0.0189461,0.0247778,0.0669311,-0.0369886,-0.0479051,0.0948561,0.0756724,0.126121,0.119869,-0.0501476,0.0319441,0.0335122,0.0769524,-0.0938828,0.131472,0.139345,-0.0874629,0.134113,-0.0343916,-0.103655,-0.000686268,-0.0982728,0.127492,-0.113436,0.100442,-0.0752557,-0.0894178,-0.0193082,-0.0394828,-0.00482021,0.108731,-0.0351828,-0.117267,0.0499469,-0.13149,0.0518886,0.0359861,-0.00574611,-0.0785801,-0.104305,-0.129786,0.0593134,0.0767991,0.0943018,-0.0615223,-0.00766498,0.105497,0.11134,-0.113174,-0.0651956,-0.0470568,-0.0129359,0.129101,-0.0119002,-0.0466378,-0.0157511,-0.120135,0.0204588,-0.0315787,-0.0635034,0.0554927,0.040479,-0.0968651,0.0392613,0.118709,-0.0392041,-0.137322,0.0715131,0.00450104,0.121108,-0.0969193,-0.0453865,0.0589448,0.126688,-0.083168,-0.0377437,-0.036682,-0.0482192,-0.079653,0.0103852,0.0224807,-0.134982,0.0113383,0.0658211,-0.0517224,-0.0181743,-0.0972653,-0.0792683,0.0223718,-0.0107273,-0.0778672,-0.0135247,0.0300634,0.00814737,0.0669912,-0.100886,-0.0383984,0.0894515,-0.0484461,0.12939,-0.126553,-0.0800834,0.110025,-0.115574,-0.0750573,-0.0488506,0.00457098,-0.00600081,0.0610163,0.00193461,0.138229,0.0629904,0.0380262,0.0573156,-0.0744426,0.119617,-0.0774966,0.11875,-0.00705298,-0.0977656,-0.0555897,-0.0604257,-0.145889,0.0697043,-0.095587,-0.0293809,0.0870879,-0.0444498,-0.0412033,0.12602,0.105324,-0.117221,-0.00403049,0.104644,-0.035358,-0.0895072,-0.068882,0.00509184,0.134437,-0.0621544,0.02144,-0.0514703,-0.079979,-0.0603731,-0.0297151,0.14899,-0.035095,-0.0287453,-0.0419927,-0.10429,0.0272204,-0.0486901,-0.0425739,-0.0684517,-0.0129791,0.0562814,-0.0579855,-0.0540088,0.0541283,0.116309,-0.0244842,-0.0952959,0.0615608,-0.100741,0.010376,0.0079445,-0.124792,-0.0138468,0.103364,0.00322654,0.0417599,0.0433562,0.131884,0.0149029,-0.021567,-0.140675,0.0695058,0.0331172,0.100175,-0.0672888,-0.0366403,-0.0264096,0.0282267,0.0629987,0.0468848,-0.0425475,0.107776,0.0865542,-0.132267,0.0327205,-0.0608009,-0.0786451,-0.0996284,0.135932,-0.076268,0.0410297,-0.118153,-0.0270644,-0.00339729,-0.0603988,-0.121522,0.0181932,0.123715,0.00370724,0.10308,-0.00819783,-0.12393,0.0296209,0.0228459,0.110241,-0.109245,0.0548998,-0.132562,-0.00633991,-0.0777798,-0.0269477,0.0763618,-0.0620172,0.108981,-0.104762,0.0889677,-0.0425522,-0.0851388,0.0393784,0.123657,0.0244181,-0.0417553,0.0584166,-0.156895,-0.113141,0.0988001,-0.12514,-0.00403305,-0.0577562,-0.0818512,-0.132358,0.107525,0.0330253,0.0133037,0.139727,-0.0822598,-0.110049},
		  {0.0250259,-0.0414598,0.0162639,-0.0994666,0.0489308,-0.0798632,-0.129449,-0.00157621,0.103642,0.0464203,0.0605236,0.0265647,0.131726,0.101822,-0.140926,-0.00150809,0.133957,0.0980907,-0.0499602,0.094111,0.0596123,0.0664562,-0.0920391,-0.00398276,-0.113737,-0.0187775,-0.0253119,-0.0218319,-0.00302259,-0.121127,-0.151157,0.109155,-0.0196679,-0.105796,0.100905,-0.0762801,-0.0883324,-0.0730835,0.0363514,-0.018272,-0.106318,0.0576851,-0.0704697,-0.105527,0.00653492,0.096685,0.131973,0.0774915,-0.127987,0.115353,-0.0284224,0.112734,0.0995733,0.0257229,0.0546324,0.0865414,-0.0627587,0.0719151,0.0988553,0.0624074,-0.0209424,-0.110257,0.101122,-0.11251,-0.042203,-0.0679099,0.109848,-0.111339,-0.0121957,-0.020298,0.0208221,0.143232,0.0953562,0.0462337,-0.0298514,0.113349,0.0754446,0.0189935,0.0975253,-0.1337,0.069256,0.103793,-0.0416114,-0.134113,-0.0301291,-0.0624688,0.141256,-0.0168843,-0.133539,-0.0458027,-0.0799545,0.0579327,0.126554,-0.0516642,0.0351082,-0.100614,0.0466665,-0.00113075,-0.00585107,0.054671,0.0597361,0.0195672,0.00152268,0.0582249,0.116369,0.101863,0.0369518,-0.0872255,-0.128441,-0.110726,0.0952249,0.0693291,-0.0382993,-0.125653,-0.105125,0.113691,0.0632504,0.0354811,0.018386,0.00208673,-0.0132446,0.0481787,-0.00541719,-0.0907693,0.0789775,-0.0820695,-0.0220488,0.0155261,0.13612,0.106976,0.0538179,-0.00670772,-0.0787249,0.0434702,-0.052568,0.117892,0.0280896,0.078398,0.0507073,-0.0107008,-0.00420647,0.00504009,0.109456,-0.00327299,0.104454,0.148571,0.00311054,-0.0537838,0.102202,-0.0930962,0.0693042,0.0839394,-0.0943504,0.0305065,0.0785224,0.0750227,0.1287,-0.107805,-0.115613,-0.10659,-0.12391,0.0703269,-0.126797,-0.133164,-0.112209,-0.0383743,0.0159564,0.0684573,-0.00393691,-0.0374107,-0.0391236,-0.00280363,-0.0586002,0.0462776,0.0684859,0.0360371,-0.0916627,0.0434814,-0.0511149,0.115599,-0.124994,0.121293,-0.116337,-0.093486,-0.0510456,0.0951126,-0.0939463,-0.0111823,0.123368,-0.0185959,-0.0252854,0.0268628,0.0538779,-0.0700386,0.102615,-0.100093,0.0197238,0.0739454,-0.0157867,0.00101943,0.100669,-0.112471,0.0402052,-0.100158,0.106341,-0.106865,-0.000391504,0.0939385,-0.0203163,0.00378995,-0.0768985,-0.0561595,-0.0396947,0.133589,-0.0644377,0.00136684,0.127327,0.0407004,0.143202,0.0736058,0.104149,0.0253974,-0.0375024,-0.0559929,0.111134,-0.055229,-0.0300181,-0.121991,-0.129983,0.11713,-0.131612,-0.0973345,0.122575,0.0387046,-0.0863618,-0.0492187,-0.0405218,0.0202054,0.123566,-0.0569862,-0.0906269,0.121256,0.102158,-0.11302,0.105709,0.0247804,0.0553509,0.0195818,0.0412738,-0.129275,-0.0680527,0.0501687,-0.12622,-0.106193,-0.0837333,-0.0120292},
		  {0.0868467,-0.00752868,0.115081,-0.193461,0.0757333,0.0236807,-0.0468967,0.147347,-0.111775,-0.129239,-0.0395105,-0.0841007,0.0305225,0.0345786,0.0999205,0.0892446,-0.061683,-0.0178048,0.00463109,-0.0910369,-0.0428078,0.0881082,0.0426481,-0.0622356,0.064931,-0.0322296,-0.107443,0.105206,-0.0475978,-0.142848,0.0854664,0.157288,-0.141332,0.022339,-0.056072,-0.0579661,0.125686,-0.0263493,-0.0783395,0.0154581,-0.0253628,0.00170875,-0.104922,-0.0545245,-0.0368108,0.0952889,0.0802442,-0.11144,-0.0356272,0.115184,0.102397,-0.131602,-0.188771,-0.0054803,-0.134875,-0.0277099,0.0438793,0.0828472,-0.0657537,-0.00167583,0.142253,-0.057376,0.076352,0.00553267,0.100433,0.0916697,-0.10584,-0.0491564,-0.143868,0.141886,-0.0546419,0.0655107,-0.116728,0.107979,0.0809887,0.164231,0.0617411,-0.024164,0.0565588,-0.178963,0.0236001,0.0962065,0.064041,0.0751642,0.106805,0.152083,-0.0808183,0.112659,-0.0901518,-0.0311321,0.00516593,0.00111915,-0.139174,0.085667,0.0641131,0.117757,0.0819399,0.0173789,-0.0756346,-0.102141,-0.163529,-0.0533433,-0.00200948,0.0689066,-0.113856,-0.0832835,-0.035782,0.0593097,0.0831265,0.146383,0.106715,-0.00683471,-0.00753202,-0.0860794,0.080712,0.122588,-0.065883,-0.0676825,-0.0621923,-0.0191457,-0.0630641,-0.0928959,0.134136,0.0984664,0.108027,-0.0757372,-0.0775395,0.0961195,0.0533823,0.0841443,-0.000550466,-0.188873,0.0914485,-0.0495701,-0.0409061,-0.0923816,0.0852005,0.0519742,0.0764998,0.106962,-0.0952558,0.0818808,0.0502471,0.110159,-0.0970932,0.0196273,-0.0296278,0.0599609,-0.0915672,-0.0662842,-0.0421318,-0.1407,-0.0720291,-0.065655,0.00355318,-0.0108123,-0.0159709,0.120276,-0.120651,-0.110655,0.063035,-0.113026,-0.0971156,-0.141672,0.105486,-0.0411889,0.00637218,0.114794,-0.0707544,-0.103509,0.00331037,-0.100956,0.0575014,-0.0765587,0.133912,0.103754,-0.145557,-0.164537,-0.076924,-0.0528745,-0.13853,-0.0183558,-0.0867499,-0.102916,0.156657,-0.0227741,0.125002,0.000484326,-0.0277312,-0.0253095,-0.0776982,-0.129067,0.0537221,-0.083425,0.167427,0.0418778,-0.0240242,0.124799,-0.032145,0.00505474,-0.136058,-0.0297556,0.0760436,-0.0494222,0.158007,0.129392,0.0100704,0.109859,-0.00298867,0.0122469,-0.00346127,0.0527869,-0.0629036,-0.0089601,-0.0148378,0.100083,0.147198,0.0969348,0.169439,0.161781,-0.0411843,-0.0145567,-0.0806211,-0.0630673,-0.0182302,-0.00519938,0.124251,0.167089,0.0199085,-0.073423,0.0244132,-0.0793549,-0.0433041,0.152027,0.0700972,-0.0287607,-0.0264423,0.172773,0.108866,0.0843011,0.148507,-0.0393001,0.119504,-0.0422769,0.0957929,-0.0232495,-0.0667835,0.0295803,0.00437017,-0.0560458,-0.0896723,-0.0218546,0.0709296,-0.0166448,0.158383,-0.133688},
		  {-0.181191,-0.348005,0.232221,0.0724873,0.0421412,-0.157818,0.0859041,0.106505,-0.270383,-0.153892,0.0379742,-0.146195,-0.144322,0.0180487,-0.133255,-0.0179704,0.174743,-0.156018,-0.0142617,0.168168,-0.126923,-0.215514,0.0956659,-0.205187,-0.178078,-0.0603726,-0.146246,0.20428,-0.175768,-0.0840189,0.246099,0.248814,-0.153781,-0.129267,-0.0864642,-0.195247,0.145774,0.116648,0.160238,-0.13232,0.147297,-0.18306,-0.237314,-0.0845373,-0.0963747,0.000699642,0.0820238,-0.00922158,0.176768,0.0032871,-0.0522825,0.229233,0.0212039,-0.0655463,-0.153885,-0.0285138,-0.0143044,0.159181,-0.0756827,0.158217,0.232945,0.153664,-0.111889,0.218384,0.0305775,0.10696,-0.136386,-0.126326,-0.135317,-0.109519,0.102276,0.101502,-0.0736009,0.0310972,-0.0456424,0.161888,0.0586774,-0.0884766,-0.137614,0.0269148,0.118198,-0.143409,0.167988,-0.04513,-0.184359,0.00880924,0.146896,-4.78e-05,-0.0266619,0.0935052,-0.219492,-0.0636692,-0.0324749,-0.234294,0.100595,0.149171,-0.0708065,0.129658,-0.12287,0.239671,0.0795168,0.0230369,-0.108295,0.0280346,-0.0275161,0.0132293,0.0639814,-0.199082,-0.10943,-0.0153868,0.00896384,-0.131459,-0.207901,-0.00281818,0.101005,0.288863,0.176564,-0.117572,-0.134401,-0.105234,0.188732,-0.0301146,-0.0915259,0.234818,-0.00702,-0.0671758,-0.0607037,0.0850337,0.0414514,0.220274,-0.217596,0.0307207,-0.132623,-0.159453,-0.108222,-0.14439,-0.0134802,-0.0162598,0.225662,-0.0179403,0.11574,0.0864891,0.171669,-0.100547,-0.0348901,0.0903516,0.278777,0.152066,-0.152485,0.0131872,-0.163575,-0.213217,-0.172804,-0.00453175,0.0130819,0.251886,-0.203772,0.239184,-0.125682,-0.0533655,0.179629,0.148547,-0.134119,-0.165861,0.0187812,0.0397322,-0.203213,0.201083,-0.0839472,-0.245567,-0.0540277,-0.269702,-0.14906,-0.12078,0.178991,0.319717,-0.0658314,0.00850941,0.144569,0.0666907,0.0425234,0.023784,0.142381,-0.00202923,-0.0566501,-0.054261,0.00191471,0.132836,-0.150867,-0.102518,-0.0328836,-0.297468,0.16851,-0.168403,0.313466,0.19167,-0.0276943,-0.15212,0.0180459,0.107193,0.0474751,-0.244073,-0.0682393,-0.192923,0.113596,-0.0449444,0.101685,-0.165543,-0.26759,0.183106,-0.02361,-0.0862268,-0.0178808,-0.168371,0.200257,0.014763,0.0848685,0.200114,0.0480273,-0.0393591,0.211334,-0.00788564,0.0852237,0.169597,-0.192602,-0.157614,0.27471,-0.0293374,-0.128689,-0.253159,0.157279,-0.00261853,-0.0659766,0.0770388,0.146567,-0.139123,-0.163274,0.291594,0.0808548,-0.0995538,-0.146612,0.0039849,-0.17925,0.0262435,-0.0497086,-0.0363433,0.169534,0.127978,0.214873,0.125305,0.19976,0.379776,0.239756,0.0381639,0.310961,-0.012298},
		  {-0.127663,-0.156002,0.174463,0.126727,0.00758248,-0.12198,-0.105913,0.0112138,-0.183904,0.0329952,0.113211,0.0247149,0.125553,-0.157602,-0.158,0.0836826,-0.0482471,-0.0741798,-0.0466089,-0.018975,0.0817508,0.0358601,0.110644,0.0507589,0.0272423,-0.0503912,-0.0670213,-0.00903736,-0.136675,-0.0845079,-0.0669066,-0.031008,-0.105762,0.00405749,-0.0792345,0.125121,0.00390134,-0.00381135,0.148804,-0.151398,-0.0821118,-0.0151452,-0.0405308,-0.0144627,-0.10991,0.125972,0.120809,0.0120414,0.00696445,-0.0909344,-0.115794,0.0322389,0.030372,0.109225,0.0507424,0.0694629,-0.0769238,0.0149386,-0.144014,-0.0241175,0.167246,0.179278,0.0584389,0.107683,0.168348,0.146502,0.00261996,0.0301696,-0.0882564,-0.158852,0.10005,0.0997584,-0.0614723,-0.136792,0.0157939,0.0648736,0.0268553,-0.00762067,-0.0953029,0.159228,0.0659232,-0.00626221,-0.070344,-0.00738197,-0.00836509,-0.119092,-0.0724063,-0.140036,-0.032324,0.0777028,-0.0947526,-0.0264029,0.0663154,-0.0293532,0.084487,0.0884274,0.0157295,-0.0850865,0.0718993,0.0376419,-0.0850608,-0.164502,0.0770416,-0.115797,0.0749192,0.0557285,0.0421769,-0.022688,-0.0456303,-0.00898381,-0.032509,-0.120249,-0.0884219,0.0254473,-0.123192,-0.078408,-0.00723566,0.0648011,-0.0860879,-0.0309388,0.166067,0.0446765,0.00885963,-0.0419697,-0.0348669,-0.0353857,0.0336364,-0.0449437,0.00744469,0.0279948,0.014954,0.0789956,-0.116449,-0.113907,-0.122025,-0.0134149,0.0827568,0.106034,0.100481,-0.100443,0.136726,0.0771697,-0.0936833,-0.0358911,0.0353477,-0.0603053,0.0916932,0.0331654,-0.16174,0.0576693,0.0565487,0.0235766,-0.124831,-0.0710125,-0.0771267,0.156489,-0.0952562,-0.0361516,-0.0656373,-0.155618,0.0987184,0.034367,-0.00530127,-0.122846,0.0573548,-0.117751,-0.100765,0.136795,0.0550853,-0.0645161,0.0219845,-0.177913,0.0707694,0.0137309,0.0556644,0.0467656,0.0649519,-0.110403,0.00566173,0.0114318,0.0760142,-0.016811,-0.0838615,-0.0436948,-0.134234,-0.0456591,-0.0549092,-0.0557195,0.0950728,0.139402,0.0561018,0.0488681,-0.0597567,-0.0767944,0.131804,-0.120403,-0.0271088,-0.0324486,-0.0171063,0.123833,-0.0211306,-0.0159706,0.0653089,0.029693,0.0875254,0.117055,-0.0777873,-0.0100379,-0.100745,-0.0695328,0.023051,-0.00375724,0.0117417,-0.174016,0.0708484,-0.0456479,0.00564156,0.107159,-0.127583,-0.10513,0.0115534,-0.0948719,-0.0117571,0.0770427,-0.00147606,0.126735,0.0701833,-0.0707585,0.147218,0.06921,0.0351025,-0.0550424,-0.101429,-0.0201182,0.14852,0.018306,-0.0518861,0.0659958,0.0386691,0.129296,0.0324231,-0.0101321,0.0133962,0.0131824,-0.0841634,-0.111536,0.00606961,-0.0846304,-0.0312584,0.0410953,0.111214,0.0624916,0.0716961,-0.00738253,-0.03847,0.132082},
		  {0.101527,0.0132992,0.0793796,-0.0986762,0.0625877,-0.0601199,0.00254461,0.00757546,-0.180286,0.099113,-0.130495,-0.110211,0.114783,0.0720081,-0.130672,0.0300421,0.133186,-0.0702913,0.0667361,0.00513011,0.0217782,-0.042757,0.100989,0.0624123,-0.111959,0.0693913,0.109368,-0.0250421,-0.0723949,-0.0873182,0.0899354,-0.00879748,-0.181378,0.0881268,-0.0754597,-0.0499912,0.102003,-0.00312904,0.0109787,0.0767898,-0.0982106,-0.0628035,-0.141533,-0.147411,-0.159235,-0.0391829,-0.0925525,-0.04246,0.0939182,-0.0332788,0.120362,0.0640421,0.0769671,-0.0180312,0.056304,-0.0313655,-0.0628101,0.0403328,0.0632739,-0.037622,-0.0105526,-0.00216112,0.00569666,-0.00186016,0.00795019,-0.0631633,-0.127423,-0.0808502,-0.0310177,-0.0140808,-0.0452516,-0.0728571,-0.00355369,0.0432323,0.0358047,0.0650043,-0.113308,-0.131402,-0.0991196,-0.0794592,0.00395349,-0.0935772,-0.0197956,0.0277551,0.124013,0.0655504,0.141129,0.0239995,0.0815846,-0.105772,0.0254018,0.0379453,0.0253987,-0.0759746,0.139631,-0.0541994,0.0494562,0.0286192,-0.129117,0.0777294,0.0109637,0.0170769,0.0950952,-0.00629585,-0.135635,-0.0525339,0.147171,-0.0751394,0.0167177,-0.0747539,0.014422,-0.146387,0.0839849,-0.134428,-0.0397036,0.016056,0.148216,-0.00441541,0.0298644,-0.0742864,0.139017,-0.05734,0.113984,0.0998876,0.12167,-0.0362703,0.120814,0.151131,0.0790651,-0.0177254,-0.0798265,-0.096281,0.118655,0.0687827,-0.0450452,0.0610008,-0.0809659,-0.0111563,0.0880871,-0.068714,-0.0452136,0.100069,-0.0822102,0.0884182,0.0700695,-0.129859,0.0778942,-0.0971056,-0.166117,-0.00457727,0.0329495,-0.0971926,-0.10177,0.0794559,0.0157555,0.154853,-0.0674481,-0.0427116,0.0354259,-0.0555072,0.0589326,-0.0246777,-0.159602,0.0252457,0.0853009,0.0762664,0.0704927,0.154643,-0.00803549,-0.169716,-0.0195654,0.0976559,-0.0609431,-0.00144638,0.137623,0.158089,-0.0331754,-0.149546,0.0606407,0.141174,-0.0446168,0.00887514,0.0619681,-0.0299714,-0.0844979,-0.12331,0.0259105,-0.0156935,0.0257209,0.0250145,-0.00417984,-0.0865429,0.10804,0.0722186,0.136524,-0.0174536,-0.00670337,-0.0725215,0.114192,-0.111434,-0.0406658,-0.0856493,-0.0961768,-0.13431,0.0580795,0.00316852,-0.0638921,0.0750908,-0.147775,0.067852,-0.131642,0.020082,0.107423,-0.0632685,-0.0336836,-0.132342,-0.0287365,0.0209676,-0.0932964,0.123637,0.160806,0.0706227,0.122403,0.0588337,0.107577,-0.0687227,0.146414,0.09826,0.0416102,0.0131522,-0.0444521,0.10175,0.0847955,0.105844,0.0832971,0.00371478,0.0569573,0.192941,0.114278,0.0231214,-0.0777203,0.020569,0.0660928,0.0506933,-0.0561329,0.0665289,-0.0303422,0.097094,0.0144772,-0.110462,0.107672,0.0947936,0.0602687,-0.115102,0.0258183,-0.068364},
		  {0.119979,0.0589381,0.00605903,0.044673,-0.200949,0.0142858,0.0102547,-0.0940331,0.0703991,-0.0324099,-0.0126752,0.0200083,-0.105858,-0.0372231,0.113889,-0.0381713,-0.0508071,-0.0228956,0.0506391,-0.108252,0.0624752,-0.0804095,-0.00200544,0.0668348,-0.0375077,-0.0821471,-0.0260825,0.101974,0.100065,0.0151902,-0.0156009,-0.0652671,0.125922,-0.0934625,-0.0677514,-0.0334404,-0.108558,0.00274361,-0.0614021,0.106101,0.106735,0.179248,0.0589318,-0.0034317,-0.0439599,-0.0111179,-0.0337617,0.00566018,-0.0650174,0.131545,-0.0548589,0.109595,-0.084412,-0.0364796,0.17139,0.0540419,0.00237349,-0.154998,0.129677,-0.0990139,-0.0888603,0.0219061,-0.0806356,0.159219,-0.0959766,0.0142776,-0.149086,0.0524048,0.0654518,0.0715845,-0.128078,-0.186565,-0.0116222,-0.0207166,-0.0090813,0.0896327,-0.110235,-0.0906506,0.0418534,-0.0484174,0.136051,0.0700871,-0.0635928,0.151217,-0.123078,-0.113356,0.00880074,0.0890138,-0.101298,0.0589941,0.0960479,0.138367,-0.099755,0.118255,-0.0846041,-0.0816034,0.0780368,-0.0712961,0.0430619,0.0385089,-0.115041,0.00306663,0.00910037,0.0409659,0.0161435,-0.0176351,-0.0181301,0.00767199,0.0679667,-0.0119445,0.0310805,0.0441617,0.012849,0.140259,-0.0780293,-0.102888,0.0271375,0.0235108,-0.0138849,0.019581,0.11011,-0.150434,0.0691887,0.060675,0.0423268,-0.0577547,0.0242891,0.0494001,-0.142828,0.0235285,-0.0812967,0.12569,-0.122979,-0.0686378,-0.0214301,-0.0175385,0.0969067,-0.0387415,0.0093401,0.0968837,-0.0769782,-0.10202,-0.0446666,0.0243952,-0.102305,0.120523,0.0503408,0.0345616,0.0604037,-0.0530504,0.0676889,0.0364229,-0.00857466,-0.0352892,0.0145253,-0.0209637,-0.0182723,-0.127813,0.0951855,-0.0890709,0.0426091,0.0100989,0.128984,-0.0302592,0.0799441,0.10323,0.000491307,-0.148553,0.0383273,0.0947455,-0.145984,0.135659,0.0188731,-0.114414,0.0400457,0.00265191,0.0423427,0.0410828,0.0459445,-0.174529,0.0551576,0.0313343,-0.152953,-0.0557969,0.00854986,0.110286,-0.112901,-0.145354,0.0142558,-0.14993,-0.128704,0.0478812,-0.0935427,0.0710643,0.00854546,-0.166328,0.117858,-0.0629311,0.0551504,0.06037,0.189548,-0.081871,-0.153987,0.0682824,-0.14069,-0.144296,0.0317457,-0.0589435,-0.105248,0.0668005,0.00373532,-0.0815913,0.0895854,-0.0422381,0.0197792,0.0173544,-0.0302771,0.0756765,-0.0340889,-0.167672,-0.00820279,-0.0602896,-0.0587842,-0.017532,0.0283309,0.142802,-0.0330693,-0.135036,-0.0698312,-0.0593455,-0.0422966,-0.0458011,0.135469,-0.11252,-0.0613127,0.123157,-0.00638884,-0.18828,-0.0762413,-0.0875726,-0.137598,-0.0278214,0.110967,0.0970298,-0.00573322,-0.0658471,-0.0633355,0.0869704,0.10251,0.103175,0.122902,-0.140884,0.0735197,-0.114986,-0.0791744,0.0504826},
		  {0.114762,0.0213327,0.0191535,-0.0134065,0.032001,0.0341159,-0.0318958,-0.0426745,0.0209551,0.132679,0.0213959,0.116124,0.0296919,0.0794302,-0.129021,-0.0491903,0.0546664,0.0959302,0.0896956,0.0917261,-0.0523794,-0.13092,-0.0370638,-0.0558961,0.0701786,0.124087,0.067292,-0.0386818,-0.114463,0.123569,-0.108954,0.122639,-0.0291964,-0.0240592,-0.104936,-0.121875,-0.084877,-0.0597104,0.000532848,0.0283464,0.0531102,0.108231,-0.111837,-0.101895,-0.138647,0.0374835,-0.130161,0.102114,0.0396169,-0.115644,0.00647296,-0.0460842,-0.101133,-0.0589043,-0.0637406,0.107326,0.0596322,-0.0223925,-0.107054,0.108234,0.0621613,0.000234869,0.0118941,-0.0680733,-0.124381,-0.0925163,-0.0564418,-0.0297817,-0.0107006,-0.117935,0.0544721,0.0172677,0.0636153,0.0829754,-0.0167509,0.0563624,-0.0185382,0.105226,-0.0650633,-0.0995252,-0.106856,0.05089,0.0617375,-0.0929859,-0.0217456,0.0407372,0.114665,0.0107012,0.00716889,-0.0162061,-0.143786,0.0792167,0.0431267,-0.0482124,0.0444603,-0.0104858,-0.0415355,0.0375149,0.0024602,-0.0288871,-0.0240727,-0.0456808,-0.104256,0.00538958,0.100621,0.0897532,-0.0804685,-0.107089,-0.0627745,0.130666,0.070341,0.0228187,-0.102709,0.0807241,0.0532738,0.0861587,0.120187,-0.0625096,0.0763767,0.105447,-0.012248,0.0527054,0.104726,0.107442,-0.0748467,0.108565,-0.0415001,-0.0173871,0.0591844,0.053706,0.0666638,0.0528146,0.082639,0.0552442,-0.108914,0.0811604,-0.00699208,-0.00703288,-0.0979239,-0.107183,-0.00474902,-0.148245,0.0271079,-0.0551616,0.00563216,0.02075,-0.0296413,0.1285,-0.044319,-0.0328854,0.0486285,-0.0166296,0.010471,0.0383293,0.0106438,-0.0629441,0.123219,-0.0852915,0.111498,-0.098247,-0.0669338,-0.0683508,-0.0774762,0.00338341,0.0381313,-0.0364799,-0.0238894,-0.018543,-0.0510566,-0.0571434,0.0685595,-0.0162344,0.104923,0.0717628,-0.0900612,0.146475,0.0453851,0.0150987,0.073862,0.0769775,0.0848033,0.0559591,-0.0794926,-0.0450143,-0.0831338,0.114063,0.099637,-0.0713145,-0.123326,-0.103941,-0.0318663,0.0469114,0.0685075,0.0142189,-0.0519338,0.0861059,0.0557201,0.141413,-0.0656354,0.0123758,-0.0048021,0.0864857,-0.0819074,-0.0221137,-0.0286285,0.0759106,0.108765,-0.083645,0.0996168,-0.0793808,-0.0457235,0.0237023,0.0803766,-0.134115,0.0139164,0.0278891,0.149112,0.0631159,0.0709798,-0.0791392,-0.0878331,0.0159576,-0.113864,-0.0284738,0.0196936,-0.00521521,-0.0766183,0.112938,0.0484507,0.0504613,0.0304956,-0.0259398,0.0630395,0.0727363,-0.123611,0.0968273,0.0493105,0.0669846,-0.0878864,-0.0495322,0.0602756,0.0902301,-0.00806422,-0.132651,-0.041799,-0.0420284,-0.110208,0.0147399,-0.0166551,0.0587616,-0.00750981,0.107912,-0.0963395,0.0733263,-0.0654585,-0.106786},
		  {-0.0247384,-0.0281959,-0.0110448,0.1053,0.12399,-0.0171443,0.14684,-0.0663925,-0.00579918,-0.0238339,0.0424209,-0.121628,0.0594069,0.00398535,0.0450966,-0.0761955,-0.0381886,-0.16284,0.108513,0.133298,0.0679265,0.0846904,-0.0121013,0.0329476,0.0429341,-0.125449,-0.107603,0.0964211,0.0764021,-0.078291,0.0130091,0.0882765,0.00201697,0.0209105,-0.0797686,0.0829955,-0.0351978,0.263168,0.0345996,-0.0191137,-0.0946479,-0.130794,0.0165904,0.0424757,-0.114751,0.11424,0.15876,0.0431932,0.00843206,0.0959458,-0.111955,0.122575,0.0645541,-0.056095,-0.0378594,0.0619328,-0.00337424,0.0677183,-0.193974,0.115563,0.0409813,0.111011,-0.0608705,0.00887431,0.138461,-0.110039,0.110321,0.170434,-0.012543,-0.0894166,-0.0129385,0.117893,-0.0425453,-0.100062,0.118838,0.0119192,-0.0947113,0.0171478,-0.0313907,-0.0182376,0.123009,0.0618154,-0.0945073,0.0138379,0.0566658,-0.103086,-0.155266,-0.013271,0.0778689,-0.0122596,-0.0148732,-0.0284819,-0.0412826,0.0298044,-0.147297,-0.0656758,0.0254608,0.168206,-0.0325807,0.0540573,-0.0822117,0.00658909,-0.0463272,-0.126314,-0.027789,-0.0040281,-0.0306948,-0.0975044,-0.0667636,0.105542,-0.104243,0.0910648,-0.00578182,-0.0947854,-0.0722853,-0.146407,0.0741167,-0.0627322,0.0264712,-0.0394527,-0.0334783,0.0489878,0.0493177,0.00934006,-0.175917,-0.0582103,-0.108846,0.107122,-0.0062521,0.0669294,-0.155072,0.0903982,0.13011,-0.229351,-0.0630399,0.0494783,0.142833,0.189512,-0.0723639,0.0319342,0.0252867,-0.00237183,0.0981268,0.0281053,-0.095756,0.0541266,-0.0753497,-0.158611,-0.148449,-0.0785588,-0.114833,-0.0397053,-0.0960649,0.104126,0.180623,-0.00234709,-0.176425,0.0906166,0.0967535,-0.109271,-0.0672014,-0.0322348,-0.0118134,0.093345,0.133376,0.170879,-0.0215695,0.043343,0.0899136,-0.010275,-0.0605958,-0.173773,0.105087,0.0795795,0.0328232,0.093519,0.0446772,-0.0980603,0.0414766,-0.0762898,-0.0986312,-0.178055,-0.0233051,-0.0386519,0.0877114,0.176416,-0.171743,-0.088917,0.101019,-0.0799074,-0.0464153,0.0510506,0.0260957,-0.0160817,0.113454,0.00536481,-0.0107262,-0.112141,-0.0763521,0.130119,0.119703,-0.053903,-0.101638,0.0801043,0.10472,0.121196,-0.00774754,-0.0836999,-0.183612,-0.0579608,-0.0306321,0.112548,-0.0542946,0.0719479,0.119194,0.0552284,0.0978263,0.175249,0.0535066,0.0527162,0.057054,0.0365352,0.00700197,0.144242,0.0029906,-0.103193,-0.00809822,-0.0555224,-0.0760899,-0.000782768,-0.0332697,-0.117753,-0.0445807,-0.0290955,0.0832107,-0.155101,0.104934,0.0374769,0.0740187,-0.0666846,-0.076957,0.069613,0.0549585,-0.0715807,0.0895018,0.113587,0.0100181,-0.0313788,-0.0517944,-0.063997,-0.074893,0.0407494,-0.0797889,0.0132763,0.0947391,0.101076},
		  {-0.215236,0.0886652,0.017784,0.166298,-0.0654083,-0.109202,-0.110607,-0.211532,0.123003,-0.133041,-0.0100175,-0.0674833,0.0582887,0.0943465,-0.145249,-0.143453,-0.0251322,0.0532313,-0.117198,0.0363854,0.0901627,0.10477,-0.0800261,0.0403123,-0.168929,0.0592707,0.0492323,0.0413761,-0.219835,-0.090236,-0.0232565,0.0815202,-0.0850019,0.118684,-0.0765468,0.168946,0.105384,0.0509677,0.131625,0.0343993,0.0142926,0.0116449,0.0318057,-0.0968358,-0.167293,-0.0617685,-0.0608871,0.0636705,0.0993749,0.10243,0.11401,0.12835,-0.025337,-0.172825,-0.168538,0.0888415,-0.0865876,0.179165,0.0217056,0.164514,0.133819,-0.127678,0.117558,-0.000914825,0.0989598,-0.0471504,-0.024766,-0.158624,0.139623,0.213147,-0.100914,-0.0197539,0.043172,0.200674,-0.0307752,0.289875,0.189759,-0.181735,-0.152839,0.0454467,0.156892,0.100083,-0.0179151,-0.0851481,-0.0532062,-0.0900682,-0.0640993,0.229974,-0.00918012,0.027687,-0.0740982,-0.0030766,-0.0385992,0.0823788,0.0126534,0.0247486,-0.0615614,-0.0565959,-0.0351781,0.107875,0.0698315,-0.0846276,-0.113815,0.286896,0.0889415,0.0137295,-0.150475,0.125973,-0.0593161,-0.134789,0.2273,-0.00804009,-0.135982,-0.0126815,0.0372071,0.0262236,-0.0417613,-0.0137817,0.0143143,0.0404232,-0.154123,-0.00544882,-0.0883601,0.226539,-0.0439092,0.12279,0.0842041,-0.0320874,0.0671799,-0.0634536,0.11835,0.0722721,0.00866364,0.124326,0.0334216,0.0998774,0.127921,0.0526254,0.0330895,0.0122456,-0.186718,-0.163535,0.049047,0.167196,-0.00836075,-0.092649,0.0781448,0.191812,-0.184635,0.073088,-0.0998945,-0.0451418,0.107466,0.0141092,-0.171321,0.092228,0.0861393,0.0649704,0.0226063,0.226459,-0.210243,0.0727288,0.0992263,0.0565575,-0.00757371,-0.103035,0.123658,0.0775641,-0.013344,0.15596,-0.188236,-0.00759359,-0.113392,-0.0448726,0.134325,0.0852626,0.0168181,-0.00659506,-0.165359,-0.031031,-0.0378165,-0.199987,-0.19398,0.0783828,0.0942308,0.0891475,-0.0496815,0.0987452,0.146212,-0.151641,0.0322979,-0.182706,0.0104504,-0.202442,-0.02753,-0.181781,0.144807,0.0142482,-0.0282708,0.147519,0.0773046,0.129627,0.181208,0.120624,-0.0872759,-0.255291,-0.157893,-0.0705812,-0.0963316,0.0162431,0.116325,-0.163724,-0.030738,0.112412,-0.0013581,0.143656,-0.00216722,0.0502392,-0.00917745,0.0775824,-0.149564,-0.0876784,0.0168125,-0.0836636,-0.061113,0.104639,-0.157456,-0.168778,0.0543527,-0.0776931,-0.00484753,-0.0612109,0.0855973,-0.0796062,-0.149068,0.0963007,0.15673,-0.0997259,0.107568,-0.234365,-0.249152,0.0848332,-0.0269191,-0.0393917,0.111547,-0.127968,0.0313671,-0.0872096,0.205831,-0.0451856,0.150408,0.185663,-0.168506,0.324539,0.107966,0.0094034},
		  {-0.159702,0.07813,-0.199314,0.00556221,-0.0864596,-0.146932,-0.0385841,-0.237725,0.0827901,-0.0174621,-0.0506241,0.0212791,-0.129687,0.0516593,0.211353,0.0975274,0.0684017,0.048404,-0.0657839,0.149092,-0.0156712,0.241423,-0.13965,-0.0240496,-0.209466,0.217719,0.177032,-0.106496,-0.0671201,-0.125649,0.0409477,-0.173549,-0.0920015,-0.0871084,0.0730689,0.15592,0.0283321,-0.139814,-0.137094,-0.176839,-0.0185849,0.0568393,0.0341969,0.0750332,-0.101865,-0.0589494,-0.00584847,0.154343,-0.0868648,0.124679,0.0681274,-0.139862,0.0384453,0.0574311,0.0309191,0.0103492,0.0182716,0.24084,-0.179047,-0.169787,-0.226998,-0.213486,-0.0195184,0.00509609,-0.000659023,-0.199993,0.062734,0.0370753,0.14759,0.200533,0.0103225,-0.00593361,0.0954985,-0.0220942,-0.0453966,0.0985173,-0.100572,0.0361542,0.125364,-0.142938,0.0974199,-0.033411,-0.192647,0.0246589,0.0254743,0.0406251,0.0327757,0.23857,0.100177,-0.0106587,-0.0410909,-0.031047,0.0146193,0.121421,0.0416622,0.0750734,0.109937,0.060848,-0.0172681,-0.0708203,0.118669,0.0598993,0.0778211,0.262017,0.133665,-0.0815166,-0.189278,0.154599,0.0216543,-0.102662,0.256466,0.0486649,0.0388711,0.131635,0.144416,0.0722301,-0.225466,0.0131608,0.104409,0.0714239,-0.0720922,0.158112,-0.109007,0.124438,-0.062738,0.0643375,0.094429,-0.150781,0.147996,-0.0167626,0.1591,-0.00315623,-0.0821765,0.0605159,0.0708756,0.00519442,0.137685,0.060144,0.0838818,-0.0782893,-0.205284,-0.181488,-0.0571983,0.22456,-0.156613,-0.0498538,-0.000228744,0.19925,-0.062092,-0.0155724,0.138301,0.156847,0.148873,0.140763,0.169529,-0.152464,0.0727338,0.212404,0.207495,0.0655871,-0.208147,-0.141761,0.115782,-0.109264,-0.0771931,-0.143538,0.177312,-0.0515589,-0.0297414,0.263542,-0.089405,0.0113607,-0.0431004,0.000456654,0.144407,0.048046,-0.0660672,-0.134007,-0.107349,-0.028096,0.110699,-0.228658,0.0332212,-0.0977186,0.0890885,-0.14631,-0.0794724,0.208148,-0.0178857,-0.00332293,0.0199964,-0.151735,-0.0479179,0.0769496,-0.0454309,-0.11989,0.138722,0.0539591,0.0192052,-0.0809093,0.00101507,0.128047,0.137374,0.180338,0.00576885,-0.267276,-0.0990485,0.129608,0.0867376,0.0995261,-0.022611,0.0333415,0.148076,0.152147,-0.0283116,0.201992,0.139582,0.174592,0.0496089,0.0353495,-0.068443,0.109222,0.125274,0.0146364,0.273247,-0.0507108,-0.0846013,-0.0452916,-0.0875769,-0.0654674,-0.139601,0.0976685,-0.104079,-0.172786,-0.0888716,0.153143,0.0647603,-0.194763,-0.0447321,-0.221796,-0.0605022,0.0198691,-0.0121119,-0.0616065,0.0961973,0.0203425,-0.00226732,0.0471232,0.181192,0.110029,0.115894,0.0341866,-0.251976,0.175271,-0.174451,0.0260318},
		  {-0.0716808,0.0860457,-0.0757675,0.157751,0.176954,-0.0681849,0.0205838,0.0189032,-0.0779753,-0.143965,-0.00931448,-0.112619,0.0914019,0.00109671,-0.125279,0.146682,0.0957378,-0.0527907,0.130798,0.195752,-0.252646,0.138391,0.158335,-0.26119,-0.1197,0.157162,-0.0905094,0.019393,-0.114216,-0.08206,0.257343,0.166305,-0.154127,0.101318,0.123018,-0.03091,-0.0317472,0.139947,-0.111868,-0.0582633,-0.103505,-0.210267,-0.189756,-0.0956466,-0.259225,-0.0243633,0.0166445,-0.191494,-0.139262,0.00325485,-0.0390721,0.0160111,-0.0349577,0.0725736,-0.222053,0.161008,-0.0158126,0.186744,-0.0123318,0.0175589,-0.0212721,0.115005,-0.0787267,-0.125632,-0.0698404,0.188808,0.0129687,-0.100349,-0.277932,0.00386254,0.00600504,0.25393,0.0525808,0.0616567,0.11399,0.0113915,0.072608,0.217375,-0.0378265,0.0856546,0.00344559,0.094891,0.142564,-0.0134851,-0.0194832,0.103428,0.00224213,-0.0222477,-0.0572442,0.135563,-0.0829355,-0.0997905,-0.0552011,-0.181017,-0.0353317,0.0310033,-0.062164,0.0492695,-0.0837544,-0.0616942,0.0103406,0.117376,-0.209616,0.110261,-0.026772,-0.210875,-0.0125393,-0.1148,-0.170521,-0.0632797,0.153919,0.100338,-0.165384,-0.0255585,0.140215,0.0779635,0.0517245,-0.0830161,0.158718,-0.203416,-0.0515443,0.123509,0.0719983,0.104325,-0.18612,-0.0468731,-0.0393127,-0.0135594,0.0561456,-0.00589779,-0.0511523,-0.0447,0.165967,-0.121262,-0.115199,0.0366611,0.115117,-0.00396726,-0.016912,0.133881,0.100502,-0.021828,0.0361062,-0.00273247,0.0721004,0.0722791,0.180721,0.101935,-0.106665,0.148267,-0.0050124,-0.081271,0.0234779,-0.26,0.0187926,0.014502,-0.0308613,0.0272804,0.149395,0.118186,0.0344087,-0.131543,-0.160022,-0.172763,-0.0735335,-0.0601814,-0.00613375,0.247928,-0.00446907,-0.0121076,0.0207045,-0.172349,0.136075,-0.0477787,0.12204,-0.100357,-0.0840242,0.0631635,-0.084249,0.157088,-0.174168,-0.177839,0.0948909,0.132598,0.127517,0.0283203,0.0421887,0.108065,-0.134106,0.100959,0.00529752,-0.183974,0.0814599,-0.159885,0.190873,0.135246,-0.0626514,-0.160324,0.0552885,0.0614565,-0.171452,-0.0124923,0.0527751,0.108053,0.100924,0.0296621,0.193727,0.0951051,-0.015377,0.0242546,-0.103617,-0.0259293,-0.116513,-0.10543,0.140635,0.00685158,0.0721179,0.17983,0.222816,0.221863,0.00456056,-0.044722,-0.161708,0.106065,0.115603,-0.183314,0.0742877,-0.059008,-0.00956585,-0.0528933,0.0575262,-0.0378534,-0.312527,0.109911,0.113785,-0.236723,-0.0300784,0.0787923,0.0167126,0.0729491,-0.135734,-0.122863,0.0713395,-0.119019,-0.0605284,0.0712165,-0.0368212,-0.11174,0.128761,-0.157277,-0.0562929,0.207233,-0.130082,0.0772073,0.15734,0.0748432},
		  {-0.0593094,-0.124527,-0.0597079,0.108232,0.0933449,-0.00321226,-0.0653447,0.0659126,-0.0435855,-0.0937265,-0.075193,-0.0735543,0.141279,-0.0542142,-0.121377,-0.0774211,0.0470603,-0.125468,-0.022875,-0.0923011,0.0280555,-0.0578819,0.151734,0.0076864,-0.0911029,-0.058116,0.0393889,0.147163,0.0335431,0.087502,0.0438282,0.00657184,0.0751423,0.0466476,-0.112196,0.0274781,0.0429504,-0.0277987,0.0776987,-0.10516,0.0812793,0.113426,-0.10582,-0.100721,0.0488015,-0.0112936,0.0764898,-0.148821,0.0142852,-0.15799,-0.150314,0.0250995,-0.113713,-0.118213,-0.0651323,0.103037,0.130351,0.0231669,0.0541903,0.108518,-0.0680375,0.0983613,-0.133649,0.122732,0.0525597,0.152982,-0.0614064,-0.0770975,-0.106543,-0.128788,0.109405,0.0914928,-0.148329,0.0265109,0.131133,0.0705563,0.0992484,-0.00239929,-0.0455743,0.0440503,-0.105104,0.0710241,0.221452,-0.0190836,-0.107191,-0.0481003,0.0563647,-0.137308,-0.0971142,0.0842954,-0.126227,0.111716,0.0107628,-0.0714725,0.0322033,0.148329,-0.0965624,0.0332483,0.110123,0.0482443,-0.122136,0.108729,-0.182506,0.0549515,0.0296716,0.133048,0.117824,0.0283057,0.10202,0.0658814,0.00598473,0.123686,0.0340778,-0.0900322,0.0648102,0.0476579,0.0779617,0.0852979,0.118493,-0.148448,0.144568,-0.0535504,0.124421,0.0196176,-0.0513303,-0.0211886,0.0100181,0.0340045,0.0317109,-0.042981,-0.0104765,-0.0700096,-0.0975761,-0.0955662,-0.0926213,0.038851,0.0845003,0.0367819,-0.031065,0.0287735,0.142033,0.146327,0.0356186,-0.0469334,0.173682,0.0207543,0.0388601,-0.109203,0.0184571,0.0484633,-0.0666436,-0.140634,-0.0933969,-0.0272833,0.0574266,0.0227292,-3.05e-05,-0.0836672,-0.146429,-0.153945,0.110633,0.172064,-0.176841,-0.136143,0.03319,0.083468,-0.0726204,0.127259,0.146137,-0.00438511,0.0567342,-0.126974,0.137033,-0.0302046,-0.0055508,0.0418082,-0.0349729,-0.0395656,-0.0394486,0.0489105,0.00448038,0.0117529,-0.068971,0.0483344,-0.00335099,0.0728442,0.0313756,-0.11736,0.113662,0.144261,0.0422374,-0.00571964,0.14161,-0.0996376,0.0989881,-0.10213,0.0784598,0.0303643,-0.0805843,0.100015,-0.105068,-0.0376171,0.0602437,-0.117353,0.033764,-0.0660736,0.0812811,0.0442224,-0.0150455,0.0611241,0.0556506,-0.0185927,-0.00489659,-0.114161,0.0918231,0.09183,0.0936236,-0.0777862,-0.106154,-0.126728,0.114208,0.105428,-0.128926,0.156837,-0.058451,-0.0822232,0.0783529,-0.0585436,-0.08126,-0.031904,0.150565,0.120681,0.0854076,-0.0555583,0.0845338,0.0127427,0.0633936,0.15178,0.0414806,0.0492558,-0.0805105,0.081389,0.00587082,-0.032229,-0.0220304,-0.000367508,0.0136471,-0.125954,0.0484171,-0.130601,0.0709815,0.136225,0.137074,-0.0656392,0.0272109,0.0710857},
		  {-0.111203,0.150728,-0.0672066,0.156754,0.0260937,-0.167729,-0.169821,-0.209663,0.138803,-0.124952,-0.0730241,0.0907827,0.0173551,0.00221715,0.0984395,0.102279,-0.0466911,-0.0755628,-0.138425,-0.0757549,0.0321671,0.0611889,-0.00100011,0.00479086,-0.153239,0.187088,0.0634428,-0.0626627,-0.104834,0.090846,-0.104382,-0.139097,0.139095,0.173215,-0.0501855,0.0140317,0.108847,-0.0876461,0.0955765,-0.0269685,0.11702,-0.00339855,0.0572732,-0.0600169,0.00490971,-0.037228,0.201101,-0.0814057,-0.0202374,0.0552096,-0.00283981,0.135918,-0.0261712,-0.078559,0.0779557,0.110509,-0.0484337,0.11784,-0.0544441,0.0581097,-0.0615798,-0.0165949,0.00830909,-0.0403632,0.0452821,0.126373,0.0971331,-0.166095,0.00321974,0.19534,0.0400503,-0.0274855,0.187394,-0.0290411,0.167113,0.069472,-0.0524081,-0.0988174,-0.0307803,0.129584,-0.0205291,-0.0172783,-0.0550067,-0.128169,-0.0534461,-0.0653878,0.0368141,0.146892,-0.0616673,0.0294614,0.086067,0.0420619,-0.121413,0.0609657,-0.0701136,-0.0725847,0.0282286,0.0969611,-0.127723,-0.0901624,0.0447721,0.0472757,0.136952,0.188524,-0.0572583,-0.0364052,-0.137694,0.057772,-0.033451,0.000938155,0.137525,-0.147116,0.0429444,0.134791,-0.0698188,-0.208624,-0.0459814,0.0263864,0.0287919,0.0808089,-0.26214,-0.115866,0.153599,0.189245,0.127266,0.0772757,-0.133238,0.0612817,-0.110984,-0.00303664,-0.0690986,0.13364,-0.0979875,-0.107482,-0.0387015,-0.0174352,-0.0347893,0.0582652,0.158131,-0.0391049,-0.0261547,-0.0649686,-0.134788,0.181353,-0.130274,-0.0975241,-0.0243486,0.129885,0.0962377,-0.099611,0.0749667,0.167711,-0.0316895,-0.0974074,0.0648464,-0.025846,-0.0395827,-0.122788,0.188961,0.26046,-0.0489024,-0.0646186,0.0199681,0.00711538,-0.0301699,0.0701585,0.0240854,-0.148909,0.0324539,0.108504,-0.231091,0.13424,0.138581,-0.0397773,-0.12403,0.0433091,-0.0319085,0.122785,-0.0576476,0.123462,0.1671,-0.0578561,-0.140147,-0.0803308,0.0416915,0.0104832,-0.191167,0.161713,0.0954316,-0.182583,0.0465112,0.0942122,-0.152992,-0.000360692,-0.0730207,0.000371295,0.0664507,0.00446468,0.0323463,-0.00397742,-0.0177572,0.0696317,0.110486,0.0566759,-0.0384856,-0.167242,-0.0414589,-0.0523821,0.0208006,0.0887456,-0.122265,-0.0556644,0.0962899,0.135878,0.111194,0.100007,-0.047414,-0.042041,-0.00753344,0.00666536,-0.029551,-0.0344781,0.169818,-0.0663489,0.109482,-0.0678681,-0.0389298,-0.095921,0.0619941,-0.121861,0.10396,-0.0414419,-0.101071,-0.0363438,-0.224731,-0.0560067,0.156068,-0.0072615,0.162859,-0.114496,-0.027148,0.0288784,0.0941892,0.102234,0.230073,0.12688,0.151607,0.0358284,0.192822,0.118154,-0.0719514,-0.0178733,-0.1213,0.264994,-0.191402,-0.00898812},
		  {0.221434,0.161102,-0.0038013,-0.0845012,0.105668,-0.0316876,0.256467,-0.025479,-0.135071,-0.106981,-0.0382161,0.0105419,0.157953,-0.0952602,0.143394,0.157196,0.179841,0.0799045,0.108081,0.080666,0.00633055,-0.0389511,0.141298,0.10294,0.158551,0.0276838,-0.00376117,-0.117183,-0.123093,0.0290382,0.136017,-0.120534,-0.0990519,0.0207192,-0.122345,-0.164271,-0.129376,0.0632934,-0.0508182,0.217049,0.00478474,0.131044,-0.0693594,-0.0728518,-0.00832381,-0.0740148,-0.0224898,-0.0769713,0.0101181,0.0450725,-0.0990409,-0.0408878,0.0649982,-0.0963003,0.121863,0.00539178,0.0821559,-0.0677222,-0.0364273,0.0641412,-0.0564386,-0.0950327,-0.0764158,-0.0825012,0.0198243,-0.105365,0.108657,-0.0189679,-0.111697,-0.137852,0.1332,0.103246,-0.067145,-0.0336194,-0.0704752,-0.142495,0.119128,0.123655,-0.125554,0.0477122,0.017742,0.0799356,0.120237,-0.132312,-0.0351699,-0.0139236,0.0498304,0.0491709,0.066597,-0.202345,-0.130515,-0.125024,-0.173367,0.0548679,0.0561875,-0.00439353,-0.107013,-0.104723,0.123897,-0.0840892,-0.0434003,-0.0454451,0.116208,-0.130535,0.00147324,0.165766,0.0276501,-0.105864,-0.0516128,0.0937107,0.0411935,0.0126584,0.00540284,0.0261964,-0.146702,-0.176161,0.0219148,0.105393,0.127835,-0.0735828,-0.011622,0.129256,0.0460649,0.0537262,0.147651,0.0889467,-0.0190106,0.0961443,-0.0898647,-0.0429183,0.0435401,0.00529384,0.134631,0.164664,0.15192,0.0197477,-0.0582314,0.0673734,-0.0684321,0.0203389,-0.067661,0.0837477,-0.118024,0.0540035,0.00885118,-0.0751763,0.00838013,-0.0431495,-0.0357978,0.120539,-0.145376,-0.160312,0.0146423,0.0676969,-0.00423218,0.105082,-0.0560019,-0.0339691,-0.202699,-0.0916547,-0.0226459,0.0177154,-0.00638658,0.123427,-0.00461132,-0.0884818,0.0123177,0.0449282,-0.111959,0.214802,0.0464488,-0.0279947,0.016264,0.1779,-0.191634,0.0870595,0.16893,0.191837,-0.0873433,0.0270912,-0.158442,0.101789,0.182419,-0.0474288,0.0764307,0.198562,-0.0846412,-0.0593371,-0.0415275,0.101056,-0.0146105,0.156369,0.0617171,0.0832136,0.00595312,-0.111808,-0.0561221,-0.108854,-0.0802277,-0.133622,0.0591833,-0.0458181,0.0796775,0.00791024,0.145113,0.193185,0.0387955,0.0430013,0.153098,0.0912368,-0.0101505,0.251128,-0.247867,0.132676,-0.170294,-0.0895259,0.0517383,0.136333,-0.203455,-0.101941,0.116551,-0.0846862,-0.0754427,-0.0539785,0.112322,0.0474723,-0.0198622,0.133324,-0.111472,-0.155034,-0.0136504,-0.120119,0.0809165,0.22813,-0.0228005,0.0525138,0.124565,0.185184,-0.0466736,0.157677,0.0625788,-0.181671,0.148016,-0.170013,-0.0515396,0.142547,0.13263,-0.0286089,-0.0722805,0.0268631,-0.064797,-0.248391,0.172367,-0.161488,0.00932009,-0.169994},
		  {0.0835973,0.322502,0.0604677,0.0643582,-0.00425704,0.104918,0.226304,-0.105167,0.0676184,-0.0175371,-0.0831969,0.127782,-0.0242468,0.0617878,0.15605,0.0633821,0.0523582,-0.096809,0.104336,0.28972,-0.00190155,0.148216,0.0672975,-0.0555512,0.00859618,0.0902167,0.0949254,-0.161951,0.149247,-0.171523,-0.130722,-0.0890274,-0.157402,0.0362429,0.0892123,0.00118626,0.010675,-0.121156,-0.358147,0.285491,-0.168094,-0.12271,0.232384,-0.0476246,-0.0843621,0.0624551,0.146586,0.214975,0.042326,-0.00263194,0.161799,-0.220404,0.185821,-0.110113,0.266535,-0.089322,-0.120676,0.0464985,-0.082398,-0.162753,-0.12604,-0.214142,0.0893538,0.0101598,-0.0933176,-0.0446057,0.239695,0.0180422,0.0348899,-0.0777125,0.0321186,0.00508661,-0.147468,-0.16863,-0.156241,-0.110876,-0.0711484,0.119431,0.210486,-0.0235404,-0.0950208,-0.043224,-0.121175,-0.0547282,0.019619,-0.0821293,-0.192124,-0.129852,0.105565,-0.0867562,0.227498,-0.150169,-0.00484319,0.186992,0.0218714,0.105663,0.166388,0.150295,0.0071575,-0.328529,0.0681996,0.22222,-0.0405122,-0.0887708,0.126605,0.205127,-0.0420912,-0.0803002,0.12751,-0.00457217,0.11709,0.17966,0.261994,0.0477048,0.074203,-0.17467,0.0418374,0.145181,0.0631382,-0.0681697,-0.0830977,0.0962925,0.0411353,-0.177395,-0.180541,-0.0782981,0.124967,-0.0115736,0.0992484,-0.169709,-0.193663,0.220743,-0.00816953,-0.0271612,-0.0741133,0.0493359,0.0563037,-0.0469129,-0.0653168,-0.0425261,-0.116608,0.0287879,-0.069904,-0.19227,-0.0216581,-0.178921,-0.259138,-0.26016,0.209891,-0.0812523,0.0841944,-0.230482,-0.124266,0.187476,0.240237,-0.115103,0.132681,-0.231482,-0.156529,-0.146114,-0.0948614,-0.152937,-0.079034,0.169352,0.134387,-0.0213963,-0.0680445,0.0179077,-0.0178214,0.302416,0.0914668,-0.107226,0.166473,0.0855708,-0.0679975,-0.140172,0.301073,-0.0341641,-0.104554,0.0212696,-0.167579,0.13097,0.0810969,-0.0189777,0.0228838,0.0543534,-0.241559,-0.1909,0.07858,0.101892,-0.159147,0.221853,0.127896,0.246013,0.0146368,-0.181125,-0.13961,-0.0300758,-0.0442436,0.0236529,0.199906,-0.0413721,0.0598222,-0.0762027,0.13356,0.152162,0.145265,-0.0577825,0.0596202,-0.0233846,-0.0537924,0.365415,-0.11616,-0.0943523,-0.282246,0.1577,0.125882,-0.00622872,-0.121015,0.169257,0.118754,-0.154281,0.069456,-0.225865,0.278699,-0.0757601,-0.0250904,0.31768,0.0280227,0.0913221,-0.0224765,0.168346,0.0486199,0.186191,-0.030283,0.129686,0.100657,-0.087302,0.0350795,0.192813,0.167924,-0.166531,0.209958,0.107922,-0.218726,0.158354,0.0276335,-0.00730575,-0.174631,-0.135547,-0.141189,-0.169128,0.187602,-0.00122726,0.0342612,0.00451226},
		  {-0.0274117,-0.0930579,-0.000833249,0.121285,-0.0455501,0.103623,-0.0097302,-0.01862,0.126835,0.124913,0.095778,0.109016,-0.107901,-0.0525382,0.0180286,-0.0659332,0.109065,0.089753,-0.0366349,-0.13351,0.0409799,0.011086,0.121603,0.0701837,-0.137429,-0.124498,0.0686676,0.00352094,0.01339,-0.0193214,0.130268,0.10159,-0.0422733,0.072713,-0.00558912,0.129767,0.0371255,0.0672694,-0.0583116,0.080347,0.0513131,-0.0921439,0.0553405,-0.0219407,0.0546069,-0.064052,-0.101985,0.029824,-0.00669337,-0.0562064,0.123911,0.121306,-0.154949,0.121704,0.113708,-0.0175316,0.0250548,0.0973914,0.088141,-0.0420163,0.0830981,0.0585355,-0.065532,-0.111724,0.118992,0.0766275,-0.0704156,0.0443067,0.0571289,-0.0836401,0.0583913,-0.0544579,-0.130047,-0.131661,-0.0744266,-0.110362,0.0561713,-0.1402,-0.116378,0.00372341,-0.0467758,-0.123864,0.10806,0.00297621,0.0272516,-0.0328564,-0.123,0.143208,-0.11557,-0.0143485,0.107062,0.0428921,-0.0638868,-0.0574348,0.0640495,0.0677874,-0.0853547,-0.128358,-0.105374,-0.0642663,0.0502628,0.0493752,0.117012,0.0174654,0.00140684,0.0212871,-0.0645942,0.0939423,-0.0536423,-0.0952793,0.0877056,-0.00359321,0.0100913,-0.0200021,0.126905,0.0835121,0.109457,-0.117683,-0.0544749,0.0865752,0.0285372,0.0140337,0.126796,-0.0232825,-0.103043,0.0583502,-0.102278,-0.0593195,-0.068548,0.0714191,0.034953,-0.0704893,-0.00151076,0.0639258,0.0914361,-0.0443551,-0.0653566,-0.051361,-0.0877458,0.110262,0.0318702,-0.0913059,0.0745314,-0.0929657,-0.086948,0.0508241,0.0650292,0.105719,0.107355,0.00486612,-0.0668148,-0.0959952,0.0750336,-0.0425615,0.0380668,0.0251936,0.126862,0.0428809,0.114619,0.0460422,-0.114516,-0.0816266,0.127416,0.104768,0.0448579,-0.133788,-0.03408,-0.0114338,-0.0237614,0.119521,-0.0356966,0.0963909,-0.0585646,0.0535862,-0.0939535,-0.0337354,0.0500949,0.0664243,-0.0898496,-0.117433,0.129182,-0.119788,-0.100652,0.0632907,-0.0845154,-0.115475,-0.0808387,0.1299,0.119303,-0.0890177,-0.0355398,-0.082619,-0.0209125,0.108356,-0.119231,-0.141427,0.0745509,0.0913869,-0.0949661,-0.102783,-0.108236,-0.0229408,-0.0769015,-0.136954,0.0826471,-0.0419799,-0.0727428,0.0907843,0.0313881,0.109205,0.0201315,0.0957633,-0.071331,-0.117211,-0.0850672,0.0795674,-0.0876386,0.0551745,0.0737113,-0.00397127,-0.108153,-0.0496105,-0.104631,-0.0626308,0.041202,0.055146,-0.101486,0.00252025,0.0707082,-0.0481588,0.102713,-0.104346,0.00628541,-0.155837,-0.0875644,-0.0249304,-0.0264508,-0.0328901,-0.0285338,0.0405636,0.0906182,0.0817853,0.0383962,-0.0840255,0.0843642,-0.0417573,-0.0182175,-0.0777765,0.0597913,-0.107953,0.10845,0.00077233,0.0822062,0.0587097,-0.059308,0.0260821},
		  {-0.034677,-0.0397333,-0.0708118,-0.123648,0.100189,-0.0604528,0.125763,-0.0312466,-0.0765578,0.00367076,-0.121464,-0.111087,-0.0616852,-0.0641248,-0.0705042,0.0133778,-0.0937154,-0.0525041,0.0559556,-0.043705,0.00721161,0.031449,-0.0786206,0.0444488,-0.0614459,0.0930699,-0.0338616,0.103323,-0.0191797,0.0609616,0.0423332,0.0702358,0.00487192,-0.0535505,-0.0539775,-0.0902255,0.105276,0.0679495,0.0694642,0.124512,-0.098389,-0.0839558,0.00470026,0.023832,-0.0825377,-0.000135193,-0.0923203,-0.0764849,-0.121961,0.0306355,-0.107,0.0141686,0.0129738,-0.0393056,0.0648935,-0.077153,-0.0875755,0.0549862,0.128159,0.0738592,0.116442,-0.044302,0.0514665,-0.102649,-0.114637,-0.135352,0.0929646,0.123001,0.0948419,-0.0760015,-0.00557683,-0.125587,-0.0761848,-0.0652603,-0.07357,0.0775043,0.0353231,0.0959616,-0.104794,0.0710028,-0.0453106,-0.0398535,0.12527,-0.0207562,-0.0722638,-0.128322,0.130413,-0.0714119,-0.109975,0.127107,0.0814221,-0.0105557,0.0654197,0.134891,-0.0697571,-0.070494,-0.0480299,0.0465615,-0.117335,-0.0712561,0.0248059,-0.00824526,0.0670801,-0.0247556,-0.0230089,0.114338,-0.00531729,-0.102689,0.0257448,-0.101013,0.0499021,-0.0421235,-0.131974,0.115799,-0.0696271,0.110087,0.0866309,-0.102885,-0.02937,-0.0842146,0.0877489,-0.0854763,0.131672,-0.115889,-0.11914,0.0165928,-0.0973079,0.122285,0.0855799,0.0625146,0.011358,0.112724,0.136372,0.115125,0.124355,-0.0620676,-0.11097,-0.0220836,-0.122702,0.0236199,0.117553,0.0351567,-0.116256,-0.0319942,-0.0805662,0.0391142,-0.06121,-0.0426676,0.0407652,-0.0396355,-0.10299,-0.0374288,0.0933675,0.0644761,0.0481695,0.0444429,0.117072,0.0170425,-0.0619184,-0.0561519,-0.0744382,-0.0391494,0.045831,0.130861,0.0443973,0.100605,0.0711645,-0.0755641,-0.00884957,0.00804281,-0.0663383,-0.109678,-0.0289686,0.123857,0.00616097,-0.0231011,-0.0441677,-0.0953177,0.0285008,-0.133982,0.0721234,0.0625157,-0.0583324,0.0571094,-0.127104,0.00545793,-0.0622642,0.0432646,0.0980782,-0.117854,-0.0404171,0.0820498,0.0706575,0.0779002,-0.0331567,0.0606764,0.115811,0.128518,-0.0452983,0.0750706,-0.048619,-0.0583339,-0.052746,-0.0137827,0.0722398,-0.146542,0.0301201,0.0168102,0.0581102,0.0223033,0.0976898,-0.0811863,0.0216613,0.134144,-0.0928946,0.0207149,-0.0324905,0.000390468,-0.020462,-0.113731,-0.107167,0.0874,0.066652,0.0660309,0.0848561,0.0323941,0.11192,0.129784,0.099389,-0.0930579,0.113845,0.0460964,0.0665998,0.0351219,-0.0691698,0.109324,0.120043,-0.0477827,0.0801254,-0.113004,-0.107272,0.00198563,0.071857,-0.0394225,-0.0700562,-0.0197383,-0.113041,0.0892862,0.120892,-0.0426261,0.102883,0.104075,-0.0756994,-0.0959252,0.0941411,0.0326301},
		  {-0.0281618,0.242132,-0.311385,0.153423,-0.0196383,-0.117968,0.0639797,-0.246116,0.0805505,0.190083,-0.0230649,0.152044,-0.161583,0.0509053,0.251955,0.193015,-0.0315021,0.125242,0.0831807,0.267511,0.0961136,0.30987,-0.0901966,0.0594933,-0.191257,0.134538,-0.0799141,-0.239707,0.0473867,0.112484,-0.166075,-0.249306,0.119736,-0.120678,0.104083,-0.0579378,-0.0428659,0.135395,-0.164704,0.0114291,0.0637048,0.174603,0.156811,0.0914612,-0.120638,0.165555,0.167607,7.82e-06,-0.0277234,0.159279,0.240295,0.00605658,0.138669,0.0995709,-0.0199418,-0.127228,-0.134331,0.0397257,-0.132828,-0.0524032,-0.299461,-0.32358,0.11588,-0.268319,0.015529,-0.261881,0.252942,0.140432,0.0415791,0.102796,-0.274886,0.0399876,0.0697325,0.176679,-0.157435,0.189781,0.0774331,0.0447203,0.0280556,-0.0144168,-0.0532621,0.0710663,-0.207315,0.00579558,-0.0159785,0.0259511,-0.0459347,0.230219,0.104016,-0.0473432,0.0909736,0.195072,0.104819,0.185256,-0.156147,-0.0769273,0.118597,0.0490322,-0.0120602,-0.352514,0.130433,0.0756071,0.156485,0.240359,0.183191,0.161504,-0.0384124,0.0674573,-0.043014,-0.2271,0.203328,-0.0130526,0.256099,0.066872,0.105298,-0.240133,-0.160267,0.15225,0.021874,0.112185,-0.249052,0.0330654,0.122574,0.15536,-0.0587942,0.125751,-0.161208,-0.229574,0.084317,-0.259815,0.162504,0.0438437,-0.0468979,0.0770074,-0.0485293,0.193365,0.198087,-0.114001,0.0404769,0.0993313,-0.355635,0.11847,-0.181087,-0.0549624,-0.218583,-0.219972,-0.163655,0.009857,-0.0509239,0.00545606,0.212649,-0.0574318,0.148506,0.231686,0.154529,-0.148542,0.227934,-0.178054,0.117793,0.120374,-0.143792,-0.273261,-0.0128842,0.0577546,-0.190452,-0.0600804,0.121158,0.00900381,-0.22352,0.327053,0.0085337,0.183918,0.23877,-0.014095,0.0214034,-0.191573,-0.0132647,-0.107297,-0.0674694,-0.0487472,-0.0347712,-0.23617,0.0201112,-0.0868091,0.0157906,0.186988,-0.0799998,0.108838,0.187615,-0.111775,-0.195861,0.197628,-0.166039,0.159881,-0.082828,-0.143293,0.0559772,0.131625,-0.256126,0.0187802,0.148128,0.218146,0.0351976,0.295096,0.0251229,-0.0424532,0.147593,-0.129092,0.132406,-0.00193562,0.087506,0.133298,0.0990448,0.216254,0.0134902,0.021477,-0.127802,0.161735,-0.13196,0.0957659,-0.15084,-0.199481,0.0816594,-0.0892298,0.313672,-0.0631924,-0.145197,0.0620472,0.0381413,0.0304078,-0.177001,0.008716,-0.0744938,-0.110344,-0.282503,0.195239,0.257142,-0.310078,-0.0304912,-0.0484309,-0.207515,-0.15509,0.295838,0.0316205,0.176875,0.152156,0.0789759,-0.0324461,0.0326342,-0.0223467,-0.0942354,-0.266351,-0.128457,0.135088,-0.326456,-0.146617},
		  {-0.0597187,0.0692728,0.0982,-0.13827,0.0779505,0.0240513,-0.132585,-0.0700739,-0.0340712,-0.0714873,-0.0741733,-0.0955518,-0.0701877,0.121455,0.124733,0.0420953,-0.0784776,0.0438288,-0.107079,0.0784988,0.133791,0.0576985,0.118542,-0.048344,0.104384,0.00250479,-0.0235381,-0.0469575,0.0491304,0.0542357,-0.124017,0.0455092,-0.0280789,-0.0209832,-0.00687408,-0.0819088,0.0123155,0.0556954,0.113869,0.0461568,0.0594685,-0.115155,-0.125225,0.0289496,-0.128838,-0.0160836,-0.131335,-0.0473681,0.0703111,0.11393,-0.104327,0.0472134,0.019159,-0.0283141,0.0697989,-0.0657791,-0.12203,-0.0768481,0.00327567,0.0902378,0.0892801,-0.0302287,-0.0659775,0.117804,-0.0744131,0.0537302,0.00139811,-0.0887437,0.0776868,0.0612629,0.00893725,0.0423379,0.00398416,0.0662735,-0.0937042,0.00769366,-0.0825889,0.0489201,-0.131869,-0.114101,0.0382299,0.00722649,0.0123564,-0.127554,0.140412,-0.047982,0.0907434,-0.0503599,-0.0717358,-0.110621,0.102154,-0.0742673,0.0685817,0.117921,0.0109372,0.0980512,-0.111366,-0.100377,-0.0334788,-0.127858,-0.118755,0.0532427,-0.0422705,0.101547,0.104575,0.0370578,-0.10373,0.125917,-0.0511792,-0.0198078,0.0384756,-0.00700362,-0.0350983,-0.0163646,0.138375,0.0813571,-0.0472119,0.136453,0.052647,0.00386868,0.10007,0.0328273,-0.0428622,0.0922733,-0.121815,-0.0474009,0.0655084,-0.0201186,-0.0483017,0.026783,0.0879948,0.062256,0.0343752,-0.104705,-0.104972,-0.0887102,-0.126805,-0.0334909,-0.0306147,-0.0618888,0.00319344,0.105096,-0.0464049,0.0507774,-0.0487719,0.0598445,0.0370682,-0.0789173,0.0209361,0.0395668,0.0373928,0.0820284,-0.0175985,-0.0531105,-0.111933,-0.00931041,0.0202071,-0.0887491,0.0100218,0.00626439,0.0777946,0.0743696,0.126708,-0.0823852,0.0145283,0.0793321,0.0640504,-0.0257903,-0.0372452,-0.0861185,0.0119135,0.119226,0.0476171,-0.110656,-0.101907,-0.089946,-0.112172,-0.107797,0.0175041,5.96e-05,0.0301475,0.0380111,-0.0258848,0.130728,0.11757,0.0251709,-0.0801591,0.0153177,-0.112861,-0.0299551,0.0376671,-0.057207,0.122772,-0.0159649,0.0236485,-0.0872318,-0.0671555,0.0258148,0.0168658,-0.0686739,0.122111,-0.00463951,0.077726,0.0362936,-0.141033,0.0146853,0.0932728,-0.0999921,0.130059,-0.0266452,0.0894114,-0.0669771,0.0659768,0.0682193,-0.0160585,-0.0257044,-0.0404021,0.127932,0.13418,-0.107313,-0.0824356,0.0423676,0.119006,0.112626,-0.0947518,-0.0372828,0.0723061,0.0669347,0.109009,-0.0604638,0.0153046,0.0559059,0.0311162,-0.087288,-0.035026,0.0900492,-0.1117,0.0654823,0.0761294,-0.0487428,-0.0480902,0.0377031,0.0477605,-0.0198127,-0.0697421,-0.10528,0.129156,0.0158428,0.0402441,-0.0144465,0.0911654,0.11837,-0.0703148,0.0864932,-0.0515156,-0.011958},
		  {-0.015967,0.0529584,0.0583287,0.0716569,-0.0383938,0.0855445,0.0965646,-0.0189135,0.0248923,-0.170021,-0.105419,-0.100876,0.0252917,0.0468529,-0.147608,0.0240001,-0.0457973,0.00131861,-0.00867985,0.00705375,-0.0198376,0.0291166,-0.0530129,0.00199011,0.0304058,0.0627566,-0.0732304,-0.0154829,0.0458078,-0.0499562,0.0479145,0.100784,-0.0845957,-0.00977329,-0.176739,0.0932998,0.0461214,0.0553387,0.0139029,-0.143396,-0.110025,-0.0282636,-0.119606,-0.0384655,-0.100819,-0.104381,-0.0907927,0.0206802,0.0636475,0.0199274,-0.0645991,0.0732438,0.00852851,-0.0956399,-0.0857992,0.00410198,0.15437,0.00759711,-0.0432348,0.11553,-0.0120624,0.0308061,-0.156219,-0.0336812,-0.0243842,-0.0252533,-0.0498024,0.0170176,-0.000474617,0.0246943,0.106299,0.159856,-0.00855894,-0.0211003,-0.0516391,0.0244586,-0.0566218,0.0957276,-0.111598,0.114605,0.0260242,-0.0130002,0.103761,-0.103513,0.100011,-0.169711,0.076522,0.022241,-0.0770928,0.0200107,-0.0740249,-0.163306,-0.139788,0.0676111,-0.15418,-0.0169811,-0.116686,-0.0295317,-0.0305357,-0.069971,-0.0408072,-0.0582442,-0.0388712,-0.0047364,-0.0166823,0.128684,-0.123199,0.132387,-0.0490477,0.113793,-0.0687092,-0.104819,-0.0681036,-0.0411252,0.0400157,0.107543,0.124784,0.0179512,0.0560045,0.0951409,-0.0907044,-0.116507,-0.0350273,-0.0629869,0.106633,0.0401866,-0.091307,0.0072249,-0.0756078,0.0471435,0.0294522,0.00361196,0.00525784,0.118158,-0.0903951,0.0202585,0.0669511,-0.0337047,-0.0492717,-0.105135,0.04733,0.0209618,0.0142284,0.0626746,-0.11357,0.136325,-0.0508516,-0.0892675,-0.0144653,0.086458,-0.0837374,0.0265078,-0.141405,-0.0630729,-0.104401,0.142406,0.0845525,0.0266535,-0.0751741,-0.129507,0.0418233,-0.0652231,0.0145948,-0.117267,-0.0941696,-0.0355044,-0.0126069,-0.100607,0.0538856,0.0796719,-0.00793331,-0.0722411,0.0454801,-0.0681509,-0.0355208,0.0709533,0.0990164,-0.0403758,-0.0618179,-0.0133461,-0.022449,0.124491,0.118057,0.0754498,-0.0750201,-0.0640788,0.0523942,-0.129107,-0.0919918,-0.0134811,-0.124171,0.0996923,0.0372519,0.0218417,0.0917109,-0.0112158,-0.130321,-0.0436123,0.000187603,-0.00256858,-0.0563914,-0.100087,-0.126957,-0.0595884,0.0504492,-0.0802373,0.0173418,0.0880987,0.0525505,-0.107246,-0.0201114,0.094566,0.0629344,0.0806295,0.0291748,-0.0152298,0.081232,0.0719065,0.00395768,-0.0348089,0.121331,0.0971667,-0.123745,-0.00665718,-0.012961,-0.0827841,0.124144,-0.070583,0.0549732,-0.0420931,-0.0952704,-0.000525913,0.119413,0.0698357,0.0972643,0.0808324,-0.0259843,0.10514,-0.110701,0.0267209,0.00106563,0.108946,0.032146,-0.0342464,-0.0517768,-0.0190335,-0.0101157,-0.0121069,0.00748162,-0.115512,0.121622,0.119525,-0.0663761,0.0994758,0.0693774,-0.145938},
		  {-0.115696,-0.0955243,0.0905086,-0.0372079,-0.0917048,-0.121204,0.103425,-0.0245308,-0.0366305,-0.0331553,0.0168923,-0.0591768,-0.0226551,0.081687,-0.0894893,-0.0882583,0.0522496,-0.0696822,-0.0979248,0.0433301,-0.0877127,0.0324291,0.0219693,0.128571,0.0680272,-0.112385,0.0793673,0.126624,0.0734679,-0.0487763,0.0553679,0.0911748,-0.115975,0.0798492,0.0767291,0.0528274,0.0445962,0.0334155,-0.00743431,0.0355718,-0.127084,-0.0725665,-0.110289,0.0883624,-0.0759116,-0.0484221,-0.0449681,0.0853831,-0.137542,-0.00292976,0.0953354,-0.120951,0.0761994,-0.124622,0.0807664,-0.076874,-0.0112806,0.0600644,-0.00503586,-0.0644438,0.0762443,-0.0273571,0.0554089,-0.124586,0.0997493,-0.010366,-0.128055,0.110302,-0.0730909,0.131379,0.0250048,0.00611507,-0.0584112,0.0820408,-0.0302465,0.0287473,0.0537732,0.052955,0.0517899,-0.104924,-0.0685478,0.0121022,-0.116458,0.0519975,-0.0747791,0.111458,-0.0392397,-0.0849681,-0.109777,0.0669676,-0.0778757,-0.0697099,-0.126484,0.13259,-0.0365036,-0.019624,0.0229524,0.0781884,-0.0955511,-0.0190103,0.0853914,-0.0827476,0.0927235,0.0982424,0.12457,-0.0562909,-0.0967645,-0.101255,-0.125658,0.0160119,-0.0563953,-0.0768823,-0.080364,0.0158733,-0.0633902,0.125302,0.0954223,0.0913781,-0.101451,0.118116,-0.111295,-0.133698,-0.0110638,0.0111176,0.0521672,0.0259347,-0.126134,-0.0215477,0.102001,0.041404,-0.119714,0.131236,-0.0750355,-0.0974827,-0.0382962,0.0899259,-0.0592716,0.0959335,-0.122385,0.027414,-0.132336,0.101344,0.053105,-0.107112,0.0645369,-0.0454691,0.0389475,-0.0639739,0.0206043,0.0597009,0.0620786,-0.00391412,0.00226464,-0.0728408,0.0900445,0.050651,0.011715,0.127315,0.0112147,0.144924,0.05963,-0.0426575,0.113737,-0.0422583,-0.107414,-0.0163,0.0732496,-0.00514603,0.0537147,-0.0508079,-0.0989346,0.129616,-0.0985548,-0.0174389,-0.0311549,0.132294,-0.0714856,0.073685,-0.00343775,0.0704757,-0.101506,-0.0931354,-0.0324291,-0.095325,-0.0969541,-0.0606733,0.0934927,0.0905901,-0.104358,-0.0660489,-0.0802437,0.00760018,0.12718,-0.133429,0.0865991,0.0525536,0.102952,0.0311973,-0.0661725,-0.0717835,0.136518,0.131121,-0.0107484,-0.0448917,-0.00948945,0.0955177,-0.0589284,0.128898,0.131195,-0.0948294,0.0309071,0.0442076,0.0983791,0.0558124,0.028285,0.123642,-0.0840011,-0.112173,0.000518657,0.00795148,0.111717,-0.0220177,-0.0802691,0.0707146,0.0625004,0.105453,0.111912,-0.118974,0.0567195,0.0668899,0.000802,-0.145566,0.0218592,0.0390028,-0.0279281,-0.0702528,-0.127869,0.132801,0.0597649,0.0964107,0.0393613,-0.0668729,-0.101111,-0.0363873,-0.0136266,-0.0209477,0.0591511,0.0169058,-0.0331485,-0.0616783,0.0703849,0.088914,0.0808638,0.0384214,0.0811821,-0.0963971},
		  {0.118386,-0.0281198,-0.18407,0.0584223,-0.0501147,-0.177283,-0.17929,-0.0419509,0.0125361,-0.217092,-0.089066,0.176146,0.255383,-0.314331,-0.291949,0.071101,0.0248017,-0.0848114,-0.00103579,0.0963865,-0.0735963,-0.000540639,0.0521612,0.231287,-0.204139,-0.154856,-0.0701746,0.0895953,-0.182736,-0.0596334,0.18078,0.216791,-0.0334753,0.0154457,-0.0187562,0.128756,0.043503,0.114933,0.136691,-0.0407766,-0.0416037,0.226225,-0.235273,0.0133027,0.0763809,-0.071477,0.0651872,0.00511188,0.0158791,-0.144337,-0.129267,0.137,-0.0600196,-0.0525078,0.0044685,-0.115211,0.182248,-0.0153393,0.11739,0.283516,-0.00585185,0.115723,-0.0987113,0.0491445,-0.0933151,0.246469,-0.121305,-0.262117,-0.0460399,-0.179873,0.222237,-0.0698478,0.22729,-0.0370051,0.228111,-0.0665235,0.320455,-0.113111,-0.224182,0.0650821,-0.0636961,-0.132887,0.0712076,-0.105828,-0.246882,-0.118274,0.124367,-0.0554049,-0.122714,-0.161733,-0.134114,0.267704,-0.108431,0.0270004,-0.160029,-0.135414,-0.0281651,-0.20729,0.0821078,0.270637,0.0301359,-0.13129,-0.0301396,0.16994,0.112215,-0.106771,0.000270083,0.00414978,-0.20075,-0.0124969,-0.0327059,0.0660419,-0.0363978,0.116169,-0.169567,-0.080087,0.350212,-0.086765,-0.127233,0.0798992,-0.0278798,-0.226288,0.0406574,0.242529,0.389986,0.229112,-0.0549893,0.0394509,-0.127237,0.208714,0.0231306,0.0273422,-0.0885493,-0.129825,-0.0794493,-0.209079,-0.143728,-0.0107369,0.242877,0.124289,0.112224,-0.0997471,-0.12245,0.0691837,0.0258292,-0.084413,0.274431,-0.0144278,-0.00759602,0.0712004,-0.00805538,0.216382,0.00491415,-0.00217626,-0.179583,0.261132,-0.0380411,-0.0491814,-0.0837088,-0.0226189,0.126781,0.153141,-0.106298,0.121861,-0.142395,-0.177712,0.0559065,0.0956028,0.0361288,-0.096048,-0.152914,0.0116099,0.0753307,0.166911,-0.0833581,0.315667,-0.0419532,0.184756,0.0618201,-0.114865,-0.00953379,0.00670003,0.0279894,-0.115874,-0.0199577,0.0972117,0.068056,-0.119612,0.050499,0.0242362,0.0180206,-0.0207867,0.0195529,0.070823,0.0301947,-0.155726,0.0416095,0.0112767,0.0306496,-0.167111,-0.0992018,-0.115742,-0.120675,0.0579351,-0.100806,-0.0670955,-0.00252724,0.181608,-0.0160513,-0.0778713,-0.0227617,-0.0177276,-0.117703,0.0107443,0.0568414,-0.0726116,-0.00231013,-0.103631,-0.106155,-0.298664,0.141766,-0.118191,-0.0603814,0.257585,-0.160875,-0.100534,-0.194792,-0.109803,-0.139344,0.109257,0.0367091,-0.125404,0.169501,-0.0529173,-0.000934055,-0.0734943,0.0867685,0.180056,-0.0329295,-0.021311,0.00836381,-0.00702945,-0.225131,-0.102027,-0.0317029,0.15177,0.00573339,-0.117998,0.0584179,-0.0616286,-0.0206123,0.0479491,0.0743793,-0.056541,0.0457827,0.0178517},
		  {0.0287727,0.366962,0.0577216,0.133372,0.237885,0.136046,0.283255,0.160585,-0.109081,-0.229878,0.14312,0.0179718,0.0681365,0.146048,0.11575,0.308021,0.375172,0.136248,0.407088,0.577251,-0.326591,0.0319006,0.155553,0.0284436,0.0729354,-0.0266299,-0.130612,-0.0311063,0.0424556,-0.22961,0.28685,0.0624771,-0.144761,-0.175907,-0.192636,-0.288128,-0.203524,0.303445,-0.398954,0.332547,-0.0674146,0.0599904,-0.198414,-0.0354785,0.0174197,0.196849,-0.103986,-0.0458427,0.0694503,0.0895278,-0.0934531,0.0209594,0.373269,0.125737,0.0272735,0.139169,0.142649,-0.0719683,-0.200915,-0.121754,-0.0515511,0.010454,0.0107196,-0.121649,0.0533321,0.00476298,0.399648,-0.00569786,-0.295328,-0.0447922,0.00510722,0.0420707,-0.047187,0.104308,-0.102935,0.0359146,0.0791473,0.388038,-0.0374591,0.146728,-0.141907,0.0966163,0.245349,-0.0810288,-0.201381,-0.210018,0.124444,-0.0417906,0.0919526,-0.25976,0.0153508,0.0401537,-0.220745,0.0149645,0.0660043,0.0604282,-0.135547,-0.00142079,0.106585,-0.278405,-0.022652,0.365272,-0.0792388,-0.0421945,0.209359,0.282676,0.0254171,-0.252596,-0.0826826,-0.0467584,0.111409,0.0239123,0.422272,-0.0518135,-0.217009,-0.0853157,-0.0509474,0.00651811,-0.0761004,-0.315016,-0.0153466,0.0421067,0.357393,-0.130326,-0.0737932,0.0392859,-0.104372,0.225822,-0.0624495,-0.373839,-0.340215,0.257069,0.192782,0.00501686,-0.207711,-0.12707,0.208396,-0.0576543,0.00134548,-0.0503146,-0.03136,0.258333,-0.0885232,-0.0799557,-0.0238852,-0.215495,0.0887844,-0.239185,0.054045,0.0974069,-0.0874064,-0.171845,-0.211955,-0.0586283,0.161189,-0.11485,-0.0888523,-0.217831,0.0550377,-0.294978,-0.0812444,0.0809293,-0.23365,0.0675044,0.0618798,0.0830352,-0.284966,0.0753578,-0.0078329,0.321009,0.111433,-0.269354,0.297243,0.1638,-0.140495,0.000205752,0.242394,0.109397,0.0718691,0.156726,-0.262521,0.117671,0.171308,-0.0447571,-0.0130216,0.173705,-0.216858,-0.0697381,0.186349,0.180381,0.0821854,0.0348125,0.00615248,0.180093,0.112223,-0.180312,-0.164134,-0.14857,-0.0427788,-0.150079,0.020016,0.0201315,0.136992,0.0833711,0.345159,0.132307,0.237583,-0.112127,-0.0365074,-0.207928,-0.0492295,0.419342,-0.280769,-0.12297,-0.191824,-0.0237404,0.0981765,0.29053,-0.233679,0.166856,0.0865544,-0.165151,-0.0720223,0.131328,0.317332,-0.178667,0.155125,0.173387,0.0400907,-0.180333,0.158281,-0.0825911,-0.271524,0.30526,0.218296,-0.0413686,0.102044,0.136371,0.0365261,0.131425,0.156369,-0.146056,0.324148,-0.249264,-0.360598,0.105169,0.0701655,-0.131225,-0.134913,-0.234942,-0.0618234,-0.211963,0.0829425,0.0457271,-0.0664457,-0.139533},
		  {-0.0141023,-0.00777951,0.0828098,0.0747454,-0.00501025,-0.00196783,0.0826476,-0.0517602,-0.0657572,-0.0718649,-0.0944567,-0.0203415,-0.117952,-0.112753,0.122924,-0.0755256,-0.0452264,-0.100325,0.0583503,0.105035,0.0770478,0.0091365,-0.0638852,-0.0368795,-0.0189171,0.0907894,0.020283,0.0724948,0.147893,-0.0160486,-0.0308091,-0.118949,-0.0300236,0.00888505,0.104676,0.071519,0.0634496,0.069063,-0.106849,0.0171248,0.113506,-0.127555,0.0463745,-0.0555666,-0.0652908,0.0307653,-0.0788744,0.0904607,0.0402349,-0.0430029,0.0169364,0.0485022,0.0934323,-0.113975,0.0850692,-0.0465846,0.0571151,0.125439,0.0169283,0.0218013,0.0257659,0.01163,0.0663601,0.0440226,-0.0672145,-0.0841139,0.069933,-0.0400777,-0.0137395,-0.0741741,0.0412293,-0.0541702,0.060033,0.0187486,0.0825861,-0.00557281,0.0363326,-0.119087,-0.0540385,-0.105807,-0.00563521,0.00212341,0.0475012,0.0987222,-0.0304448,-0.104887,0.0437803,0.0700039,-0.00765392,0.0117234,-0.0801675,0.0205863,-0.0940486,0.137082,0.0493301,0.0538356,0.127498,-0.0339477,-0.15114,0.0656492,0.0387402,-0.0688601,0.0618773,0.123915,-0.140346,-0.0328951,-0.0360404,0.00304164,-0.035512,-0.0821464,0.0214735,-0.0851175,0.0817181,0.0289097,0.124423,0.0189655,0.0777769,0.0426143,0.117694,0.028881,0.0121184,-0.012894,-0.00224859,-0.0519034,0.0613644,-0.0362073,0.0689708,-0.117291,-0.0151388,-0.0914571,0.143988,-0.0762041,-0.0438901,-0.0316149,0.0612616,-0.0669645,-0.000418863,0.0356397,0.0877226,0.0852724,-0.0422634,-0.117665,-0.03707,0.0504444,-0.0502018,0.100999,-0.0573384,0.145466,0.017873,0.0332622,-0.0766257,0.0567974,-0.037269,0.0431627,0.106611,-0.0471048,-0.0825088,-0.0515762,0.0408927,-0.0413926,0.0785886,-0.00199016,0.152159,0.109105,-0.0405184,-0.114723,0.156255,-0.0528051,0.118659,-0.0519498,-0.09636,0.0629072,-0.0626271,-0.00928561,0.0646359,0.0397785,0.0497786,0.0161782,0.092347,0.0137597,-0.126299,-0.101145,-0.00142669,0.0134266,-0.129185,0.0575401,-0.0297517,-0.0132593,0.0921247,0.0617499,0.0220126,0.0433871,-0.0691542,-0.035194,0.0359393,-0.0239415,0.000543071,-0.108104,0.0158278,-0.0229807,-0.0583632,0.0569555,0.117459,0.0957173,0.0487672,0.078756,0.00613979,-0.111978,-0.021525,-0.0610397,0.12109,0.0495475,0.0327365,-0.10331,0.0104498,0.0277396,-0.00528725,-0.01253,0.0241839,-0.0125966,-0.121839,0.0176045,0.108749,0.0408459,0.00897057,-0.00801971,-0.0388064,-0.11762,0.121983,0.120976,0.0012994,-0.0271791,0.120046,-0.0771482,-0.0387091,0.0316534,0.0220976,-0.108633,-0.12729,-0.117587,-0.0812922,0.08064,0.0459736,0.0860846,0.0329442,-0.0981398,-0.0159173,-0.0688418,0.117885,0.0570712,0.0859818,-0.0538057,0.0434022,-0.0934257,-0.0419661,0.0786678},
		  {0.19662,-0.129544,0.0591792,-0.196962,0.214622,-0.0232795,-0.0822583,0.104675,-0.123878,0.0531801,-0.0900814,-0.00379878,0.161225,-0.0324065,-0.072042,0.058475,0.0212998,0.106321,0.0406676,-0.0230529,0.108849,0.130069,0.108515,-0.0619287,-0.0123096,0.0500062,0.141962,-0.178719,0.0204494,-0.0917659,0.0919543,-0.0462194,-0.110775,-0.00146346,0.0333533,-0.102156,0.055079,-0.0936629,-0.169727,0.111068,-0.122628,-0.106922,-0.0878617,0.0616572,-0.211866,-0.0113959,-0.00267553,-0.0432706,-0.0941609,-0.0197386,0.0717265,-0.0365905,-0.136617,0.0334902,-0.0150284,0.103026,0.0598123,0.116413,-0.00650528,-0.18321,0.0028742,0.0117594,0.138568,-0.152997,-0.112372,0.0176104,-0.0126792,-0.103206,0.0332906,0.0526854,0.08329,0.16259,-0.00681718,0.15878,-0.0873463,0.0274556,0.163907,-0.108362,-0.0294138,-0.143274,0.0297563,-0.0655246,0.147297,-0.027762,0.15026,0.0211566,0.0552943,0.0879899,0.00834248,-0.078515,0.0975277,-0.173599,0.00133199,0.181689,0.0249358,0.162596,-0.140664,0.0987834,0.126461,-0.14329,-0.0891412,0.0367023,0.0239459,-0.0706813,0.00691784,0.0474215,-0.0727173,0.209505,0.0955033,0.183075,0.239618,0.0932375,0.131993,-0.162204,0.138666,0.143964,0.0222616,-0.0634332,0.157859,0.0519812,-0.152137,0.0101211,0.0397419,-0.191281,-0.0685924,0.0976824,-0.0292141,-0.0291191,0.0262308,-0.0916194,-0.0886413,-0.0597274,0.0752057,0.0152173,-0.0843479,0.0288361,0.00886851,-0.195679,0.126721,0.101769,-0.0814077,-0.158545,-0.0201914,0.0551073,0.0291445,-0.0713501,-0.107875,0.188729,-0.0207798,0.0701426,-0.154678,-0.081696,-0.186743,0.0284643,-0.139786,-0.0249604,0.0784612,-0.02822,-0.12054,-0.0302822,-0.000889552,-0.0309818,0.0734393,-0.158316,0.0561767,-0.138534,0.00257668,0.154987,-0.0645594,0.0812288,0.0623565,-0.030037,-0.120968,0.0778533,-0.0931789,0.0608092,-0.0338977,-0.0410174,-0.18986,0.0766516,0.00644478,-0.0512782,-0.0300372,0.155942,0.155231,0.0158284,0.0515535,-0.102239,-0.0870542,-0.105663,0.0212211,0.0680441,0.0496604,-0.153966,0.0292217,0.0525205,-0.131445,0.178963,0.0363876,0.0972748,0.00864796,-0.167727,0.0950383,-0.0934732,0.201253,-0.012388,0.118926,0.106698,-0.0175991,0.0968134,0.0680095,0.183101,-0.0780449,-0.155836,0.0216455,0.0730699,0.151197,0.0226102,0.145442,-0.00757493,0.0304933,0.0862618,-0.0607211,0.0293019,0.0918189,0.0209745,0.10365,0.174343,-0.0957268,0.0189749,-0.102497,0.0770863,0.0331291,-0.0747322,0.0548208,0.0331107,-0.0293241,0.000851926,0.148815,-0.0574294,0.0181997,-0.0978169,0.141045,-0.0972842,-0.140863,0.000427273,-0.0612388,-0.0910922,-0.175695,-0.055636,-0.162047,0.128912,0.0988685,0.175247,-0.0267336,-0.177364},
		  {0.112803,-0.0787063,-0.118554,0.0159792,0.140847,0.135149,-0.0311157,0.100332,-0.0704743,-0.042573,-0.0449487,-0.0288105,-0.103729,0.183503,-0.0857928,0.190468,0.137901,0.0193898,-0.033625,-0.064052,-0.140392,0.134734,0.0480041,-0.0421554,-0.0487768,-0.0304665,0.0582351,-0.121014,0.130419,-0.106152,0.0590375,-0.0515552,0.0168798,-0.0735401,-0.0811927,0.0193016,0.0794271,-0.12487,-0.0961448,0.0931,-0.145449,-0.110137,0.141046,0.0246534,-0.0171112,0.0234223,-0.0572252,0.116542,-0.231927,0.0659317,0.038091,-0.244382,-0.039282,0.142548,0.0180156,0.0264257,0.0511625,0.0202979,0.016695,0.0393038,0.0952602,-0.0437161,0.170328,-0.131692,-0.048947,-0.114578,-0.0245504,-0.119338,-0.0388799,-0.101087,-0.111613,0.180588,0.0141784,0.0235055,0.0839471,0.05712,-0.00215944,-0.0307423,-0.116761,-0.000274643,-0.121716,0.146353,0.0759347,0.00405095,0.111188,-0.037749,-0.0579941,-0.000875113,-0.0346772,0.0272919,-0.00685084,-0.192079,-0.0673551,-0.0460044,-0.0856868,0.0874154,-0.0769147,0.162093,0.113085,-0.00287686,-0.112609,0.15125,0.00302366,0.059668,-0.127272,0.0522493,-0.111968,0.115846,0.117317,-0.00434188,0.0892747,0.0905181,0.0219851,-0.131038,-0.0174221,0.015597,-0.0482565,-0.0719872,0.0367841,0.0727587,-0.0965403,0.139056,0.0295067,-0.115308,0.042953,-0.13573,0.0476347,0.0159784,0.167615,-0.0778461,0.0339309,0.0116898,0.065028,-0.0177887,0.0212887,-0.0867088,-0.0189936,-0.189911,-0.104227,-0.0961851,-0.00618461,-0.0540423,0.0855322,-0.136899,-0.0603829,-0.184378,-0.0891296,0.0391139,0.143024,0.166721,-0.0255608,-0.194225,-0.180888,-0.124499,-0.109002,-0.115365,0.190017,-0.0789622,0.0287562,-0.016552,0.0201259,-0.154949,-0.0977692,0.0510136,-0.127267,-0.0986824,-0.0270561,0.0922723,-0.150366,0.00840653,-0.0905415,-0.144777,0.160843,0.0263925,0.0523509,0.0708968,0.068091,0.0885165,-0.115448,-0.0322853,-0.133204,-0.0356158,0.137482,0.0537539,-0.0607871,-0.0475538,-0.00739582,0.104878,-0.0507756,0.0467268,0.102671,-0.0294499,0.154823,-0.0784475,0.0912292,0.113905,-0.100011,0.19225,-0.065703,-0.0220137,-0.0762563,-0.00723243,0.202768,-0.0941161,0.180693,0.0505022,0.111255,0.0343279,0.148394,0.0826819,0.0288233,0.228199,-0.0370632,-0.11893,-0.0741,0.00254911,0.0644641,0.125272,0.105104,0.161325,0.132398,0.131675,0.102111,-0.0931451,-0.010028,0.0127306,-0.0899591,0.0533762,-0.0358372,-0.11895,-0.110599,0.181234,-0.144087,0.0762639,-0.0804058,-0.120385,0.0754162,-0.005208,0.0855327,0.138096,-0.000314695,-0.193003,0.0619441,-0.0308587,-0.0224833,0.0853374,-0.0397052,-0.0719082,-0.0015592,0.00862809,-0.197911,-0.05266,-0.0830153,-0.0606887,0.141506,-0.168135},
		  {0.104022,0.0015678,0.160057,-0.122143,0.101112,0.0302086,0.140007,-0.0130388,-0.223847,-0.0412007,-0.134526,-0.0493466,0.0554825,0.0787911,-0.0334297,0.0789538,0.00765283,0.180681,0.0327211,-0.0852042,0.0464264,0.0690288,-0.0105593,-0.0716621,-0.01865,0.0187129,0.143239,0.0071999,0.104738,-0.00903124,0.211568,0.201104,-0.229877,0.0264196,-0.125306,-0.214751,0.0957543,-0.114156,-0.166978,-0.00573014,-0.107886,-0.129526,0.0542639,0.0961885,-0.219197,0.184328,-0.165407,-0.00757522,-0.145468,0.14712,0.179452,-0.156275,-0.119501,-0.0569825,0.0436416,0.131627,-0.054437,0.1386,-0.126282,-0.028688,0.022992,-0.0318482,0.0414056,-0.119662,0.049674,0.0754869,-0.10564,0.0771996,-0.103364,0.0178446,0.124276,0.240162,-0.163426,0.0815728,-0.0397296,0.0756286,0.0138841,0.08557,-0.164873,-0.0899043,-0.13497,0.158974,0.18225,-0.125968,-0.0393494,-0.0467186,-0.0823083,0.0760403,0.191894,0.0387424,0.121674,-0.112396,-0.014342,0.0466482,0.119224,0.170669,0.0516322,0.0560725,-0.0212047,-0.134438,-0.149363,0.186731,0.000679296,-0.0792167,-0.00297952,-0.00185136,0.0226155,0.0820117,0.0453725,0.0521703,0.149209,0.00711085,-0.0688664,-0.123195,0.178287,0.127353,-0.026629,-0.0494007,0.138978,-0.0500622,-0.0321939,0.144824,-0.0599831,-0.111684,-0.0116806,-0.131292,0.170489,0.0746368,0.208284,0.0610884,-0.172036,-0.173465,0.0809069,0.171632,-0.148385,-0.0980074,-0.020025,-0.221053,-0.122081,0.021377,-0.0639569,-0.0922408,0.0436871,-0.0566121,0.11351,0.0340485,0.112106,0.204505,0.0159324,0.0284881,-0.0866259,-0.220595,-0.257774,-0.133688,0.000623104,0.132478,-0.0031994,0.108674,-0.00349281,-0.0262885,0.0975961,-0.0519049,0.0654458,-0.128751,-0.00548141,0.048216,-0.0328849,0.00618964,-0.0613776,-0.166199,0.104433,-0.0543201,-0.107717,0.0745762,0.135678,0.0843756,-0.0132249,-0.124615,-0.145524,0.218551,-0.209149,0.228713,-0.0589147,-0.083526,0.186642,-0.156973,0.152226,0.00874635,-0.111071,-0.0830893,-0.0238406,-0.1437,0.254436,-0.13151,0.0151398,0.141335,-0.0159166,-0.00414339,-0.0752896,-0.0536169,-0.0712295,-0.00653462,0.197756,0.0269055,0.222769,0.0619218,-0.0547953,-0.145624,0.0957089,0.0397419,-0.0472305,0.0862949,-0.149934,-0.106986,-0.165065,0.104006,0.0994143,0.0988056,0.061738,0.0301731,-0.0385524,-0.0158033,-0.192411,-0.047438,0.0921676,-0.186359,0.0940583,0.218161,-0.128406,-0.0730289,-0.0520415,0.0723044,-0.0198408,0.123781,0.0160311,-0.131596,0.0915941,0.273197,0.110994,-0.0832887,0.159031,-0.172088,0.0380559,-0.0373982,-0.0964634,0.173743,0.0721909,-0.0117184,-0.0212981,-0.104533,-0.0533075,0.0287606,0.104857,-0.0431171,0.179484,-0.1118},
		  {-0.104623,-0.185263,0.122493,0.0302508,-0.070071,-0.0739967,-0.136101,-0.141233,0.0301026,0.0683878,-0.0784399,0.111452,0.0146452,-0.0496229,0.000714608,0.110642,-0.0688508,-0.0449842,-0.0326926,0.0272305,-0.00982158,-0.00261638,-0.0224812,0.0129272,-0.0141505,-0.102487,0.0491746,0.0295447,0.0947982,-0.00761861,0.00934622,-0.0142682,0.0891503,0.039194,0.039351,0.115581,0.0363344,-0.0010714,0.110476,-0.0553882,0.103216,-0.0929625,-0.0641304,0.0929101,-0.0198549,0.0932151,-0.0995359,-0.112645,0.149057,-0.0390602,-0.0608741,0.0376822,-0.0771593,-0.0502779,0.0641593,0.0167071,0.046606,-0.0466128,0.0593155,0.0393098,0.0982118,0.16144,0.0467113,0.151716,0.15511,-0.00192311,-0.155164,0.029312,0.0441923,-0.006519,0.0667725,-0.0145681,-0.101743,-0.0147601,0.0238796,-0.0162103,0.0535954,-0.037828,0.0847145,0.110282,0.166436,-0.0412054,0.130108,-0.0027405,-0.040028,0.0760941,-0.079976,-0.0626078,0.0616758,-0.0472466,0.0794179,0.114159,0.0706847,0.056433,-0.0673123,0.115024,0.00749907,0.0893217,-0.117479,0.0608634,0.117887,0.114496,-0.0785136,0.105295,0.0592801,-0.0710543,-0.0426508,-0.128866,-0.146374,0.0909496,0.0801669,-0.0510262,-0.112417,0.0443524,0.0164244,-0.00439962,-0.0645107,-0.0798455,0.110462,0.0639352,-0.032643,-0.0943847,0.108925,0.0643549,-0.0396053,-0.0349018,-0.056995,-0.0807112,0.0592587,0.18839,0.0916268,0.125507,-0.131773,-0.0388215,0.0694978,0.0475921,0.126423,0.110122,0.165096,0.0692101,0.113877,-0.0966222,-0.152393,-0.11332,-0.0744988,0.135376,-0.0229867,-0.00537207,-0.146848,-0.0134925,0.0473354,-0.0965569,0.0950155,-0.019018,-0.0798908,-0.0637418,-0.124901,0.168715,0.145565,-0.0578918,-0.090278,0.123655,-0.117604,-0.124036,-0.106461,0.0164615,0.0271092,0.082485,0.0536125,0.0307244,7.19e-05,-0.0616215,-0.0754246,-0.00197376,0.0870828,0.147678,0.0633425,-0.00851013,-0.0506102,-0.0166398,0.106786,-0.0507205,0.031238,0.0526539,0.0529954,0.152514,-0.109697,-0.0582899,0.127718,0.028963,-0.128955,-0.0149644,-0.100007,-0.169494,0.130079,0.0337724,0.0167355,-0.00700819,0.0907825,-0.1018,-0.113822,0.104431,0.0642716,-0.0457676,0.0102834,-0.00767703,-0.0427742,-0.0784443,-0.0870262,-0.0690253,-0.122739,0.0571572,-0.0440379,-0.117216,0.125874,-0.112904,-0.0103024,0.0102051,-0.0120596,0.0750203,-0.0118649,0.0435314,0.10944,0.103491,-0.0884702,-0.124589,0.0634675,-0.0642882,-0.105888,-0.110965,-0.02593,0.0109297,-0.0997091,-0.123952,-0.0305355,-0.0552394,-0.0432775,-0.0638645,0.0629448,-0.118842,-0.103202,-0.117661,0.0313272,-0.0499252,0.0448907,0.0908481,0.0264241,-0.0496851,0.029279,0.104822,0.0686173,0.0908629,0.0268335,0.127804,-0.0918666,0.113089},
